digraph Tree {
node [shape=box] ;
0 [label="X[2] <= 155.264\nmse = 2919986.033\nsamples = 4105\nvalue = 2218.679"] ;
1 [label="X[2] <= 79.647\nmse = 1183607.254\nsamples = 2367\nvalue = 1504.64"] ;
0 -> 1 [labeldistance=2.5, labelangle=45, headlabel="True"] ;
2 [label="X[1600] <= 0.5\nmse = 276569.378\nsamples = 717\nvalue = 783.367"] ;
1 -> 2 ;
3 [label="X[0] <= 5.028\nmse = 247242.717\nsamples = 631\nvalue = 871.953"] ;
2 -> 3 ;
4 [label="X[2] <= 55.063\nmse = 438437.483\nsamples = 79\nvalue = 1421.596"] ;
3 -> 4 ;
5 [label="X[2] <= 46.323\nmse = 189120.285\nsamples = 49\nvalue = 1085.126"] ;
4 -> 5 ;
6 [label="X[1576] <= 0.5\nmse = 88980.962\nsamples = 30\nvalue = 929.364"] ;
5 -> 6 ;
7 [label="X[1] <= 0.03\nmse = 58832.288\nsamples = 27\nvalue = 861.963"] ;
6 -> 7 ;
8 [label="X[1] <= 0.016\nmse = 11079.165\nsamples = 5\nvalue = 719.254"] ;
7 -> 8 ;
9 [label="X[1574] <= 0.5\nmse = 3784.314\nsamples = 2\nvalue = 528.201"] ;
8 -> 9 ;
10 [label="mse = 0.0\nsamples = 1\nvalue = 615.199"] ;
9 -> 10 ;
11 [label="mse = 0.0\nsamples = 1\nvalue = 484.702"] ;
9 -> 11 ;
12 [label="X[2] <= 45.31\nmse = 398.829\nsamples = 3\nvalue = 771.36"] ;
8 -> 12 ;
13 [label="X[1026] <= 0.5\nmse = 33.662\nsamples = 2\nvalue = 759.511"] ;
12 -> 13 ;
14 [label="mse = -0.0\nsamples = 1\nvalue = 767.002"] ;
13 -> 14 ;
15 [label="mse = 0.0\nsamples = 1\nvalue = 755.017"] ;
13 -> 15 ;
16 [label="mse = -0.0\nsamples = 1\nvalue = 802.955"] ;
12 -> 16 ;
17 [label="X[1] <= 0.051\nmse = 67307.336\nsamples = 22\nvalue = 930.857"] ;
7 -> 17 ;
18 [label="X[286] <= 0.5\nmse = 65099.818\nsamples = 10\nvalue = 1054.77"] ;
17 -> 18 ;
19 [label="X[735] <= 0.5\nmse = 36460.426\nsamples = 9\nvalue = 1103.794"] ;
18 -> 19 ;
20 [label="X[1573] <= 0.5\nmse = 18761.705\nsamples = 8\nvalue = 1143.733"] ;
19 -> 20 ;
21 [label="X[2] <= 40.712\nmse = 6795.315\nsamples = 6\nvalue = 1192.514"] ;
20 -> 21 ;
22 [label="X[1563] <= 0.5\nmse = 2506.221\nsamples = 3\nvalue = 1277.837"] ;
21 -> 22 ;
23 [label="X[1582] <= 0.5\nmse = 469.0\nsamples = 2\nvalue = 1251.038"] ;
22 -> 23 ;
24 [label="mse = 0.0\nsamples = 1\nvalue = 1235.725"] ;
23 -> 24 ;
25 [label="mse = 0.0\nsamples = 1\nvalue = 1281.665"] ;
23 -> 25 ;
26 [label="mse = -0.0\nsamples = 1\nvalue = 1358.232"] ;
22 -> 26 ;
27 [label="X[1] <= 0.044\nmse = 1565.945\nsamples = 3\nvalue = 1135.633"] ;
21 -> 27 ;
28 [label="X[1565] <= 0.5\nmse = 71.919\nsamples = 2\nvalue = 1118.278"] ;
27 -> 28 ;
29 [label="mse = -0.0\nsamples = 1\nvalue = 1125.202"] ;
28 -> 29 ;
30 [label="mse = 0.0\nsamples = 1\nvalue = 1107.891"] ;
28 -> 30 ;
31 [label="mse = -0.0\nsamples = 1\nvalue = 1222.409"] ;
27 -> 31 ;
32 [label="X[421] <= 0.5\nmse = 7206.227\nsamples = 2\nvalue = 899.829"] ;
20 -> 32 ;
33 [label="mse = 0.0\nsamples = 1\nvalue = 814.939"] ;
32 -> 33 ;
34 [label="mse = 0.0\nsamples = 1\nvalue = 984.718"] ;
32 -> 34 ;
35 [label="mse = -0.0\nsamples = 1\nvalue = 624.52"] ;
19 -> 35 ;
36 [label="mse = -0.0\nsamples = 1\nvalue = 417.457"] ;
18 -> 36 ;
37 [label="X[354] <= 0.5\nmse = 41661.649\nsamples = 12\nvalue = 815.206"] ;
17 -> 37 ;
38 [label="X[1] <= 0.116\nmse = 27118.97\nsamples = 11\nvalue = 781.031"] ;
37 -> 38 ;
39 [label="X[1] <= 0.058\nmse = 25606.38\nsamples = 7\nvalue = 704.194"] ;
38 -> 39 ;
40 [label="mse = 0.0\nsamples = 1\nvalue = 419.454"] ;
39 -> 40 ;
41 [label="X[1] <= 0.112\nmse = 17405.705\nsamples = 6\nvalue = 739.787"] ;
39 -> 41 ;
42 [label="X[2] <= 37.283\nmse = 8725.085\nsamples = 5\nvalue = 799.959"] ;
41 -> 42 ;
43 [label="mse = 0.0\nsamples = 1\nvalue = 988.047"] ;
42 -> 43 ;
44 [label="X[2] <= 41.431\nmse = 1979.554\nsamples = 4\nvalue = 762.341"] ;
42 -> 44 ;
45 [label="X[158] <= 0.5\nmse = 93.202\nsamples = 2\nvalue = 711.407"] ;
44 -> 45 ;
46 [label="mse = 0.0\nsamples = 1\nvalue = 701.753"] ;
45 -> 46 ;
47 [label="mse = -0.0\nsamples = 1\nvalue = 721.061"] ;
45 -> 47 ;
48 [label="X[146] <= 0.5\nmse = 354.632\nsamples = 2\nvalue = 796.297"] ;
44 -> 48 ;
49 [label="mse = 0.0\nsamples = 1\nvalue = 769.665"] ;
48 -> 49 ;
50 [label="mse = -0.0\nsamples = 1\nvalue = 809.613"] ;
48 -> 50 ;
51 [label="mse = 0.0\nsamples = 1\nvalue = 559.272"] ;
41 -> 51 ;
52 [label="X[1313] <= 0.5\nmse = 86.246\nsamples = 4\nvalue = 919.337"] ;
38 -> 52 ;
53 [label="X[315] <= 0.5\nmse = 33.247\nsamples = 3\nvalue = 915.475"] ;
52 -> 53 ;
54 [label="X[997] <= 0.5\nmse = 0.0\nsamples = 2\nvalue = 918.804"] ;
53 -> 54 ;
55 [label="mse = 0.0\nsamples = 1\nvalue = 918.804"] ;
54 -> 55 ;
56 [label="mse = 0.0\nsamples = 1\nvalue = 918.804"] ;
54 -> 56 ;
57 [label="mse = -0.0\nsamples = 1\nvalue = 905.488"] ;
53 -> 57 ;
58 [label="mse = 0.0\nsamples = 1\nvalue = 934.783"] ;
52 -> 58 ;
59 [label="mse = -0.0\nsamples = 1\nvalue = 1293.649"] ;
37 -> 59 ;
60 [label="X[1564] <= 0.5\nmse = 74852.839\nsamples = 3\nvalue = 1343.394"] ;
6 -> 60 ;
61 [label="mse = 0.0\nsamples = 1\nvalue = 970.736"] ;
60 -> 61 ;
62 [label="X[2] <= 38.518\nmse = 27024.639\nsamples = 2\nvalue = 1492.457"] ;
60 -> 62 ;
63 [label="mse = 0.0\nsamples = 1\nvalue = 1693.795"] ;
62 -> 63 ;
64 [label="mse = 0.0\nsamples = 1\nvalue = 1358.232"] ;
62 -> 64 ;
65 [label="X[2] <= 48.82\nmse = 247249.845\nsamples = 19\nvalue = 1363.273"] ;
5 -> 65 ;
66 [label="X[1565] <= 0.5\nmse = 39535.424\nsamples = 5\nvalue = 1735.241"] ;
65 -> 66 ;
67 [label="X[2] <= 46.774\nmse = 27073.915\nsamples = 4\nvalue = 1655.179"] ;
66 -> 67 ;
68 [label="mse = 0.0\nsamples = 1\nvalue = 2007.387"] ;
67 -> 68 ;
69 [label="X[1] <= 0.036\nmse = 2716.55\nsamples = 3\nvalue = 1584.737"] ;
67 -> 69 ;
70 [label="mse = 0.0\nsamples = 1\nvalue = 1677.816"] ;
69 -> 70 ;
71 [label="X[1574] <= 0.5\nmse = 688.29\nsamples = 2\nvalue = 1561.467"] ;
69 -> 71 ;
72 [label="mse = 0.0\nsamples = 1\nvalue = 1516.027"] ;
71 -> 72 ;
73 [label="mse = 0.0\nsamples = 1\nvalue = 1576.614"] ;
71 -> 73 ;
74 [label="mse = -0.0\nsamples = 1\nvalue = 1975.429"] ;
66 -> 74 ;
75 [label="X[1] <= 0.029\nmse = 252853.825\nsamples = 14\nvalue = 1214.486"] ;
65 -> 75 ;
76 [label="X[2] <= 53.196\nmse = 4063.831\nsamples = 4\nvalue = 714.004"] ;
75 -> 76 ;
77 [label="X[1596] <= 0.5\nmse = 1560.019\nsamples = 3\nvalue = 740.536"] ;
76 -> 77 ;
78 [label="mse = 0.0\nsamples = 2\nvalue = 717.732"] ;
77 -> 78 ;
79 [label="mse = -0.0\nsamples = 1\nvalue = 808.947"] ;
77 -> 79 ;
80 [label="mse = 0.0\nsamples = 1\nvalue = 607.875"] ;
76 -> 80 ;
81 [label="X[2] <= 54.93\nmse = 224458.448\nsamples = 10\nvalue = 1381.313"] ;
75 -> 81 ;
82 [label="X[2] <= 51.451\nmse = 163312.84\nsamples = 9\nvalue = 1494.26"] ;
81 -> 82 ;
83 [label="X[1321] <= 0.5\nmse = 1130.499\nsamples = 2\nvalue = 792.635"] ;
82 -> 83 ;
84 [label="mse = 0.0\nsamples = 1\nvalue = 759.012"] ;
83 -> 84 ;
85 [label="mse = -0.0\nsamples = 1\nvalue = 826.258"] ;
83 -> 85 ;
86 [label="X[1572] <= 0.5\nmse = 87021.823\nsamples = 7\nvalue = 1621.828"] ;
82 -> 86 ;
87 [label="X[1578] <= 0.5\nmse = 45477.742\nsamples = 5\nvalue = 1758.128"] ;
86 -> 87 ;
88 [label="X[1601] <= 0.5\nmse = 17454.937\nsamples = 4\nvalue = 1823.816"] ;
87 -> 88 ;
89 [label="X[2] <= 52.532\nmse = 7949.495\nsamples = 3\nvalue = 1755.182"] ;
88 -> 89 ;
90 [label="mse = 0.0\nsamples = 1\nvalue = 1821.629"] ;
89 -> 90 ;
91 [label="X[1570] <= 0.5\nmse = 3316.804\nsamples = 2\nvalue = 1655.512"] ;
89 -> 91 ;
92 [label="mse = 0.0\nsamples = 1\nvalue = 1597.92"] ;
91 -> 92 ;
93 [label="mse = 0.0\nsamples = 1\nvalue = 1713.103"] ;
91 -> 93 ;
94 [label="mse = 0.0\nsamples = 1\nvalue = 1995.403"] ;
88 -> 94 ;
95 [label="mse = 0.0\nsamples = 1\nvalue = 1298.31"] ;
87 -> 95 ;
96 [label="X[835] <= 0.5\nmse = 16157.907\nsamples = 2\nvalue = 1258.362"] ;
86 -> 96 ;
97 [label="mse = 0.0\nsamples = 1\nvalue = 1348.245"] ;
96 -> 97 ;
98 [label="mse = -0.0\nsamples = 1\nvalue = 1078.596"] ;
96 -> 98 ;
99 [label="mse = 0.0\nsamples = 1\nvalue = 647.158"] ;
81 -> 99 ;
100 [label="X[1568] <= 0.5\nmse = 343713.658\nsamples = 30\nvalue = 1992.131"] ;
4 -> 100 ;
101 [label="X[2] <= 57.675\nmse = 266704.679\nsamples = 28\nvalue = 1911.249"] ;
100 -> 101 ;
102 [label="X[1] <= 0.013\nmse = 275147.22\nsamples = 10\nvalue = 2209.124"] ;
101 -> 102 ;
103 [label="mse = 0.0\nsamples = 1\nvalue = 973.4"] ;
102 -> 103 ;
104 [label="X[1547] <= 0.5\nmse = 169814.042\nsamples = 9\nvalue = 2304.18"] ;
102 -> 104 ;
105 [label="X[1571] <= 0.5\nmse = 121358.223\nsamples = 8\nvalue = 2373.577"] ;
104 -> 105 ;
106 [label="X[1572] <= 0.5\nmse = 64247.645\nsamples = 7\nvalue = 2448.933"] ;
105 -> 106 ;
107 [label="X[1] <= 0.096\nmse = 8483.455\nsamples = 5\nvalue = 2596.287"] ;
106 -> 107 ;
108 [label="X[1439] <= 0.5\nmse = 1024.541\nsamples = 4\nvalue = 2545.575"] ;
107 -> 108 ;
109 [label="X[2] <= 56.177\nmse = 399.315\nsamples = 3\nvalue = 2557.338"] ;
108 -> 109 ;
110 [label="mse = 0.0\nsamples = 1\nvalue = 2597.286"] ;
109 -> 110 ;
111 [label="X[1576] <= 0.5\nmse = 0.443\nsamples = 2\nvalue = 2547.351"] ;
109 -> 111 ;
112 [label="mse = 0.0\nsamples = 1\nvalue = 2548.017"] ;
111 -> 112 ;
113 [label="mse = -0.0\nsamples = 1\nvalue = 2546.685"] ;
111 -> 113 ;
114 [label="mse = 0.0\nsamples = 1\nvalue = 2486.763"] ;
108 -> 114 ;
115 [label="mse = 0.0\nsamples = 1\nvalue = 2748.422"] ;
107 -> 115 ;
116 [label="X[799] <= 0.5\nmse = 646.316\nsamples = 2\nvalue = 2055.99"] ;
106 -> 116 ;
117 [label="mse = 0.0\nsamples = 1\nvalue = 2020.037"] ;
116 -> 117 ;
118 [label="mse = 0.0\nsamples = 1\nvalue = 2073.967"] ;
116 -> 118 ;
119 [label="mse = 0.0\nsamples = 1\nvalue = 1544.656"] ;
105 -> 119 ;
120 [label="mse = -0.0\nsamples = 1\nvalue = 1471.418"] ;
104 -> 120 ;
121 [label="X[1] <= 0.053\nmse = 199114.744\nsamples = 18\nvalue = 1767.446"] ;
101 -> 121 ;
122 [label="X[2] <= 64.634\nmse = 146002.686\nsamples = 11\nvalue = 1933.916"] ;
121 -> 122 ;
123 [label="X[1441] <= 0.5\nmse = 48705.383\nsamples = 7\nvalue = 1778.973"] ;
122 -> 123 ;
124 [label="X[396] <= 0.5\nmse = 25845.732\nsamples = 6\nvalue = 1715.357"] ;
123 -> 124 ;
125 [label="X[1563] <= 0.5\nmse = 4186.748\nsamples = 5\nvalue = 1758.156"] ;
124 -> 125 ;
126 [label="X[2] <= 60.221\nmse = 1188.75\nsamples = 4\nvalue = 1725.014"] ;
125 -> 126 ;
127 [label="X[1224] <= 0.5\nmse = 112.399\nsamples = 3\nvalue = 1748.613"] ;
126 -> 127 ;
128 [label="X[343] <= 0.5\nmse = 2.771\nsamples = 2\nvalue = 1756.048"] ;
127 -> 128 ;
129 [label="mse = 0.0\nsamples = 1\nvalue = 1754.383"] ;
128 -> 129 ;
130 [label="mse = -0.0\nsamples = 1\nvalue = 1757.712"] ;
128 -> 130 ;
131 [label="mse = 0.0\nsamples = 1\nvalue = 1733.743"] ;
127 -> 131 ;
132 [label="mse = 0.0\nsamples = 1\nvalue = 1677.816"] ;
126 -> 132 ;
133 [label="mse = 0.0\nsamples = 1\nvalue = 1857.582"] ;
125 -> 133 ;
134 [label="mse = -0.0\nsamples = 1\nvalue = 1201.769"] ;
124 -> 134 ;
135 [label="mse = 0.0\nsamples = 1\nvalue = 2192.479"] ;
123 -> 135 ;
136 [label="X[22] <= 0.5\nmse = 149807.5\nsamples = 4\nvalue = 2398.744"] ;
122 -> 136 ;
137 [label="X[491] <= 0.5\nmse = 47286.925\nsamples = 3\nvalue = 2231.429"] ;
136 -> 137 ;
138 [label="X[1573] <= 0.5\nmse = 14677.418\nsamples = 2\nvalue = 2341.397"] ;
137 -> 138 ;
139 [label="mse = 0.0\nsamples = 1\nvalue = 2512.729"] ;
138 -> 139 ;
140 [label="mse = -0.0\nsamples = 1\nvalue = 2255.73"] ;
138 -> 140 ;
141 [label="mse = 0.0\nsamples = 1\nvalue = 1901.525"] ;
137 -> 141 ;
142 [label="mse = 0.0\nsamples = 1\nvalue = 3068.006"] ;
136 -> 142 ;
143 [label="X[1577] <= 0.5\nmse = 118709.222\nsamples = 7\nvalue = 1397.514"] ;
121 -> 143 ;
144 [label="X[1564] <= 0.5\nmse = 53808.041\nsamples = 6\nvalue = 1303.387"] ;
143 -> 144 ;
145 [label="X[1573] <= 0.5\nmse = 27877.315\nsamples = 3\nvalue = 1176.602"] ;
144 -> 145 ;
146 [label="X[1563] <= 0.5\nmse = 100.873\nsamples = 2\nvalue = 1040.423"] ;
145 -> 146 ;
147 [label="mse = 0.0\nsamples = 1\nvalue = 1054.627"] ;
146 -> 147 ;
148 [label="mse = 0.0\nsamples = 1\nvalue = 1033.322"] ;
146 -> 148 ;
149 [label="mse = -0.0\nsamples = 1\nvalue = 1380.869"] ;
145 -> 149 ;
150 [label="X[87] <= 0.5\nmse = 25584.018\nsamples = 3\nvalue = 1514.695"] ;
144 -> 150 ;
151 [label="X[298] <= 0.5\nmse = 168.561\nsamples = 2\nvalue = 1627.548"] ;
150 -> 151 ;
152 [label="mse = 0.0\nsamples = 1\nvalue = 1614.565"] ;
151 -> 152 ;
153 [label="mse = 0.0\nsamples = 1\nvalue = 1640.531"] ;
151 -> 153 ;
154 [label="mse = -0.0\nsamples = 1\nvalue = 1288.989"] ;
150 -> 154 ;
155 [label="mse = 0.0\nsamples = 1\nvalue = 2150.534"] ;
143 -> 155 ;
156 [label="X[1060] <= 0.5\nmse = 9712.575\nsamples = 2\nvalue = 3151.453"] ;
100 -> 156 ;
157 [label="mse = 0.0\nsamples = 1\nvalue = 3012.079"] ;
156 -> 157 ;
158 [label="mse = 0.0\nsamples = 1\nvalue = 3221.14"] ;
156 -> 158 ;
159 [label="X[2] <= 62.518\nmse = 169541.733\nsamples = 552\nvalue = 792.425"] ;
3 -> 159 ;
160 [label="X[2] <= 46.74\nmse = 113107.49\nsamples = 437\nvalue = 705.146"] ;
159 -> 160 ;
161 [label="X[3] <= 2008.0\nmse = 80996.153\nsamples = 222\nvalue = 607.173"] ;
160 -> 161 ;
162 [label="X[120] <= 0.5\nmse = 77331.125\nsamples = 189\nvalue = 641.247"] ;
161 -> 162 ;
163 [label="X[72] <= 0.5\nmse = 74243.237\nsamples = 187\nvalue = 631.529"] ;
162 -> 163 ;
164 [label="X[1396] <= 0.5\nmse = 71563.319\nsamples = 186\nvalue = 628.292"] ;
163 -> 164 ;
165 [label="X[46] <= 0.5\nmse = 69286.065\nsamples = 185\nvalue = 623.826"] ;
164 -> 165 ;
166 [label="X[131] <= 0.5\nmse = 66741.475\nsamples = 180\nvalue = 613.182"] ;
165 -> 166 ;
167 [label="X[27] <= 0.5\nmse = 64687.757\nsamples = 179\nvalue = 608.805"] ;
166 -> 167 ;
168 [label="X[1] <= 0.185\nmse = 62563.57\nsamples = 178\nvalue = 605.815"] ;
167 -> 168 ;
169 [label="X[135] <= 0.5\nmse = 61105.825\nsamples = 177\nvalue = 610.789"] ;
168 -> 169 ;
170 [label="X[2] <= 46.206\nmse = 59731.322\nsamples = 174\nvalue = 602.675"] ;
169 -> 170 ;
171 [label="X[1327] <= 0.5\nmse = 58039.187\nsamples = 170\nvalue = 596.382"] ;
170 -> 171 ;
172 [label="X[617] <= 0.5\nmse = 56320.246\nsamples = 168\nvalue = 592.337"] ;
171 -> 172 ;
173 [label="X[1564] <= 0.5\nmse = 55151.749\nsamples = 167\nvalue = 589.953"] ;
172 -> 173 ;
174 [label="X[2] <= 41.48\nmse = 48582.584\nsamples = 60\nvalue = 536.104"] ;
173 -> 174 ;
175 [label="X[1578] <= 0.5\nmse = 42041.818\nsamples = 43\nvalue = 486.057"] ;
174 -> 175 ;
176 [label="X[1569] <= 0.5\nmse = 39555.716\nsamples = 41\nvalue = 470.394"] ;
175 -> 176 ;
177 [label="X[1597] <= 0.5\nmse = 34982.479\nsamples = 39\nvalue = 456.137"] ;
176 -> 177 ;
178 [label="X[0] <= 17.675\nmse = 26842.24\nsamples = 28\nvalue = 417.667"] ;
177 -> 178 ;
179 [label="X[2] <= 38.166\nmse = 21619.924\nsamples = 26\nvalue = 399.443"] ;
178 -> 179 ;
180 [label="X[1573] <= 0.5\nmse = 24245.847\nsamples = 20\nvalue = 437.191"] ;
179 -> 180 ;
181 [label="X[2] <= 33.67\nmse = 19188.445\nsamples = 15\nvalue = 402.698"] ;
180 -> 181 ;
182 [label="X[1590] <= 0.5\nmse = 29114.129\nsamples = 5\nvalue = 284.03"] ;
181 -> 182 ;
183 [label="X[0] <= 7.943\nmse = 29279.585\nsamples = 4\nvalue = 321.748"] ;
182 -> 183 ;
184 [label="mse = 0.0\nsamples = 1\nvalue = 141.15"] ;
183 -> 184 ;
185 [label="X[1585] <= 0.5\nmse = 24543.568\nsamples = 3\nvalue = 381.947"] ;
183 -> 185 ;
186 [label="X[2] <= 32.623\nmse = 3053.822\nsamples = 2\nvalue = 488.031"] ;
185 -> 186 ;
187 [label="mse = 0.0\nsamples = 1\nvalue = 432.77"] ;
186 -> 187 ;
188 [label="mse = 0.0\nsamples = 1\nvalue = 543.293"] ;
186 -> 188 ;
189 [label="mse = -0.0\nsamples = 1\nvalue = 169.779"] ;
185 -> 189 ;
190 [label="mse = -0.0\nsamples = 1\nvalue = 133.16"] ;
182 -> 190 ;
191 [label="X[987] <= 0.5\nmse = 7871.565\nsamples = 10\nvalue = 448.339"] ;
181 -> 191 ;
192 [label="X[2] <= 34.22\nmse = 5732.043\nsamples = 9\nvalue = 424.901"] ;
191 -> 192 ;
193 [label="mse = 0.0\nsamples = 1\nvalue = 575.251"] ;
192 -> 193 ;
194 [label="X[11] <= 0.5\nmse = 3818.692\nsamples = 8\nvalue = 409.866"] ;
192 -> 194 ;
195 [label="X[2] <= 35.936\nmse = 1820.322\nsamples = 7\nvalue = 394.302"] ;
194 -> 195 ;
196 [label="X[2] <= 34.537\nmse = 896.726\nsamples = 3\nvalue = 347.104"] ;
195 -> 196 ;
197 [label="mse = 0.0\nsamples = 1\nvalue = 388.161"] ;
196 -> 197 ;
198 [label="X[1565] <= 0.5\nmse = 80.79\nsamples = 2\nvalue = 326.575"] ;
196 -> 198 ;
199 [label="mse = 0.0\nsamples = 1\nvalue = 317.587"] ;
198 -> 199 ;
200 [label="mse = 0.0\nsamples = 1\nvalue = 335.563"] ;
198 -> 200 ;
201 [label="X[0] <= 13.7\nmse = 611.395\nsamples = 4\nvalue = 417.9"] ;
195 -> 201 ;
202 [label="X[1] <= 0.103\nmse = 91.921\nsamples = 3\nvalue = 428.243"] ;
201 -> 202 ;
203 [label="X[1568] <= 0.5\nmse = 0.0\nsamples = 2\nvalue = 423.449"] ;
202 -> 203 ;
204 [label="mse = 0.0\nsamples = 1\nvalue = 423.449"] ;
203 -> 204 ;
205 [label="mse = 0.0\nsamples = 1\nvalue = 423.449"] ;
203 -> 205 ;
206 [label="mse = -0.0\nsamples = 1\nvalue = 447.418"] ;
202 -> 206 ;
207 [label="mse = -0.0\nsamples = 1\nvalue = 366.19"] ;
201 -> 207 ;
208 [label="mse = -0.0\nsamples = 1\nvalue = 549.951"] ;
194 -> 208 ;
209 [label="mse = 0.0\nsamples = 1\nvalue = 577.249"] ;
191 -> 209 ;
210 [label="X[2] <= 32.756\nmse = 26324.24\nsamples = 5\nvalue = 525.887"] ;
180 -> 210 ;
211 [label="mse = 0.0\nsamples = 1\nvalue = 679.116"] ;
210 -> 211 ;
212 [label="X[1586] <= 0.5\nmse = 23705.605\nsamples = 4\nvalue = 464.595"] ;
210 -> 212 ;
213 [label="X[1585] <= 0.5\nmse = 0.997\nsamples = 2\nvalue = 340.557"] ;
212 -> 213 ;
214 [label="mse = 0.0\nsamples = 1\nvalue = 341.555"] ;
213 -> 214 ;
215 [label="mse = 0.0\nsamples = 1\nvalue = 339.558"] ;
213 -> 215 ;
216 [label="X[1034] <= 0.5\nmse = 22413.611\nsamples = 2\nvalue = 547.288"] ;
212 -> 216 ;
217 [label="mse = 0.0\nsamples = 1\nvalue = 759.012"] ;
216 -> 217 ;
218 [label="mse = 0.0\nsamples = 1\nvalue = 441.425"] ;
216 -> 218 ;
219 [label="X[248] <= 0.5\nmse = 5053.458\nsamples = 6\nvalue = 313.652"] ;
179 -> 219 ;
220 [label="X[2] <= 41.012\nmse = 3242.987\nsamples = 5\nvalue = 336.747"] ;
219 -> 220 ;
221 [label="X[2] <= 39.865\nmse = 1754.649\nsamples = 4\nvalue = 359.912"] ;
220 -> 221 ;
222 [label="X[1573] <= 0.5\nmse = 266.085\nsamples = 2\nvalue = 325.243"] ;
221 -> 222 ;
223 [label="mse = 0.0\nsamples = 1\nvalue = 308.931"] ;
222 -> 223 ;
224 [label="mse = 0.0\nsamples = 1\nvalue = 341.555"] ;
222 -> 224 ;
225 [label="X[1] <= 0.013\nmse = 0.0\nsamples = 2\nvalue = 406.138"] ;
221 -> 225 ;
226 [label="mse = 0.0\nsamples = 1\nvalue = 406.138"] ;
225 -> 226 ;
227 [label="mse = -0.0\nsamples = 1\nvalue = 406.138"] ;
225 -> 227 ;
228 [label="mse = -0.0\nsamples = 1\nvalue = 255.667"] ;
220 -> 228 ;
229 [label="mse = -0.0\nsamples = 1\nvalue = 209.727"] ;
219 -> 229 ;
230 [label="X[2] <= 36.801\nmse = 7262.857\nsamples = 2\nvalue = 745.696"] ;
178 -> 230 ;
231 [label="mse = 0.0\nsamples = 1\nvalue = 830.918"] ;
230 -> 231 ;
232 [label="mse = 0.0\nsamples = 1\nvalue = 660.474"] ;
230 -> 232 ;
233 [label="X[1] <= 0.117\nmse = 42157.064\nsamples = 11\nvalue = 560.556"] ;
177 -> 233 ;
234 [label="X[806] <= 0.5\nmse = 15210.715\nsamples = 6\nvalue = 690.53"] ;
233 -> 234 ;
235 [label="X[1568] <= 0.5\nmse = 6396.916\nsamples = 5\nvalue = 650.265"] ;
234 -> 235 ;
236 [label="X[1595] <= 0.5\nmse = 4091.342\nsamples = 4\nvalue = 693.098"] ;
235 -> 236 ;
237 [label="X[1581] <= 0.5\nmse = 3711.332\nsamples = 2\nvalue = 720.063"] ;
236 -> 237 ;
238 [label="mse = 0.0\nsamples = 1\nvalue = 780.983"] ;
237 -> 238 ;
239 [label="mse = 0.0\nsamples = 1\nvalue = 659.142"] ;
237 -> 239 ;
240 [label="X[2] <= 37.753\nmse = 3017.14\nsamples = 2\nvalue = 666.133"] ;
236 -> 240 ;
241 [label="mse = 0.0\nsamples = 1\nvalue = 611.204"] ;
240 -> 241 ;
242 [label="mse = -0.0\nsamples = 1\nvalue = 721.061"] ;
240 -> 242 ;
243 [label="mse = 0.0\nsamples = 1\nvalue = 564.598"] ;
235 -> 243 ;
244 [label="mse = 0.0\nsamples = 1\nvalue = 932.12"] ;
234 -> 244 ;
245 [label="X[2] <= 37.236\nmse = 35317.103\nsamples = 5\nvalue = 430.582"] ;
233 -> 245 ;
246 [label="X[1044] <= 0.5\nmse = 134.859\nsamples = 2\nvalue = 263.435"] ;
245 -> 246 ;
247 [label="mse = 0.0\nsamples = 1\nvalue = 247.012"] ;
246 -> 247 ;
248 [label="mse = 0.0\nsamples = 1\nvalue = 271.646"] ;
246 -> 248 ;
249 [label="X[0] <= 12.553\nmse = 25034.782\nsamples = 3\nvalue = 555.943"] ;
245 -> 249 ;
250 [label="mse = 0.0\nsamples = 1\nvalue = 745.696"] ;
249 -> 250 ;
251 [label="X[2] <= 40.648\nmse = 17376.954\nsamples = 2\nvalue = 492.692"] ;
249 -> 251 ;
252 [label="mse = 0.0\nsamples = 1\nvalue = 399.48"] ;
251 -> 252 ;
253 [label="mse = 0.0\nsamples = 1\nvalue = 679.116"] ;
251 -> 253 ;
254 [label="X[3] <= 2005.5\nmse = 54235.404\nsamples = 2\nvalue = 717.51"] ;
176 -> 254 ;
255 [label="mse = 0.0\nsamples = 1\nvalue = 882.185"] ;
254 -> 255 ;
256 [label="mse = 0.0\nsamples = 1\nvalue = 388.161"] ;
254 -> 256 ;
257 [label="X[3] <= 1997.0\nmse = 662.373\nsamples = 2\nvalue = 773.216"] ;
175 -> 257 ;
258 [label="mse = 0.0\nsamples = 1\nvalue = 809.613"] ;
257 -> 258 ;
259 [label="mse = 0.0\nsamples = 1\nvalue = 755.017"] ;
257 -> 259 ;
260 [label="X[2] <= 43.312\nmse = 47366.33\nsamples = 17\nvalue = 629.739"] ;
174 -> 260 ;
261 [label="X[2] <= 42.844\nmse = 13263.9\nsamples = 6\nvalue = 766.502"] ;
260 -> 261 ;
262 [label="X[1028] <= 0.5\nmse = 7885.595\nsamples = 5\nvalue = 729.917"] ;
261 -> 262 ;
263 [label="X[462] <= 0.5\nmse = 1357.568\nsamples = 4\nvalue = 688.687"] ;
262 -> 263 ;
264 [label="X[2] <= 42.511\nmse = 58.569\nsamples = 3\nvalue = 675.026"] ;
263 -> 264 ;
265 [label="X[1568] <= 0.5\nmse = 28.469\nsamples = 2\nvalue = 682.889"] ;
264 -> 265 ;
266 [label="mse = 0.0\nsamples = 1\nvalue = 679.116"] ;
265 -> 266 ;
267 [label="mse = -0.0\nsamples = 1\nvalue = 690.435"] ;
265 -> 267 ;
268 [label="mse = -0.0\nsamples = 1\nvalue = 669.129"] ;
264 -> 268 ;
269 [label="mse = 0.0\nsamples = 1\nvalue = 784.312"] ;
263 -> 269 ;
270 [label="mse = 0.0\nsamples = 1\nvalue = 894.835"] ;
262 -> 270 ;
271 [label="mse = -0.0\nsamples = 1\nvalue = 949.431"] ;
261 -> 271 ;
272 [label="X[132] <= 0.5\nmse = 49630.703\nsamples = 11\nvalue = 543.363"] ;
260 -> 272 ;
273 [label="X[816] <= 0.5\nmse = 30102.617\nsamples = 10\nvalue = 509.115"] ;
272 -> 273 ;
274 [label="X[0] <= 6.32\nmse = 14320.734\nsamples = 9\nvalue = 477.888"] ;
273 -> 274 ;
275 [label="mse = 0.0\nsamples = 1\nvalue = 312.26"] ;
274 -> 275 ;
276 [label="X[1] <= 0.012\nmse = 10251.419\nsamples = 8\nvalue = 513.379"] ;
274 -> 276 ;
277 [label="mse = 0.0\nsamples = 1\nvalue = 326.242"] ;
276 -> 277 ;
278 [label="X[1] <= 0.026\nmse = 5150.468\nsamples = 7\nvalue = 544.569"] ;
276 -> 278 ;
279 [label="mse = 0.0\nsamples = 1\nvalue = 703.085"] ;
278 -> 279 ;
280 [label="X[490] <= 0.5\nmse = 3126.731\nsamples = 6\nvalue = 530.158"] ;
278 -> 280 ;
281 [label="X[1591] <= 0.5\nmse = 2256.881\nsamples = 5\nvalue = 519.79"] ;
280 -> 281 ;
282 [label="X[2] <= 44.36\nmse = 901.75\nsamples = 4\nvalue = 507.118"] ;
281 -> 282 ;
283 [label="mse = 0.0\nsamples = 1\nvalue = 545.29"] ;
282 -> 283 ;
284 [label="X[1593] <= 0.5\nmse = 259.768\nsamples = 3\nvalue = 488.031"] ;
282 -> 284 ;
285 [label="X[1566] <= 0.5\nmse = 12.873\nsamples = 2\nvalue = 495.089"] ;
284 -> 285 ;
286 [label="mse = 0.0\nsamples = 1\nvalue = 490.695"] ;
285 -> 286 ;
287 [label="mse = 0.0\nsamples = 1\nvalue = 498.018"] ;
285 -> 287 ;
288 [label="mse = -0.0\nsamples = 1\nvalue = 452.744"] ;
284 -> 288 ;
289 [label="mse = 0.0\nsamples = 1\nvalue = 633.842"] ;
281 -> 289 ;
290 [label="mse = 0.0\nsamples = 1\nvalue = 633.842"] ;
280 -> 290 ;
291 [label="mse = 0.0\nsamples = 1\nvalue = 1039.98"] ;
273 -> 291 ;
292 [label="mse = -0.0\nsamples = 1\nvalue = 1159.824"] ;
272 -> 292 ;
293 [label="X[1379] <= 0.5\nmse = 56301.357\nsamples = 107\nvalue = 620.675"] ;
173 -> 293 ;
294 [label="X[2] <= 38.369\nmse = 54820.181\nsamples = 103\nvalue = 629.793"] ;
293 -> 294 ;
295 [label="X[857] <= 0.5\nmse = 50404.861\nsamples = 36\nvalue = 567.508"] ;
294 -> 295 ;
296 [label="X[1] <= 0.144\nmse = 46904.365\nsamples = 33\nvalue = 594.199"] ;
295 -> 296 ;
297 [label="X[536] <= 0.5\nmse = 39351.345\nsamples = 31\nvalue = 570.457"] ;
296 -> 297 ;
298 [label="X[1478] <= 0.5\nmse = 34720.855\nsamples = 30\nvalue = 553.512"] ;
297 -> 298 ;
299 [label="X[1388] <= 0.5\nmse = 30531.091\nsamples = 29\nvalue = 564.313"] ;
298 -> 299 ;
300 [label="X[1595] <= 0.5\nmse = 28214.578\nsamples = 27\nvalue = 577.815"] ;
299 -> 300 ;
301 [label="X[0] <= 18.375\nmse = 26334.72\nsamples = 24\nvalue = 560.856"] ;
300 -> 301 ;
302 [label="X[1590] <= 0.5\nmse = 20603.437\nsamples = 21\nvalue = 581.263"] ;
301 -> 302 ;
303 [label="X[0] <= 15.6\nmse = 15412.926\nsamples = 19\nvalue = 564.706"] ;
302 -> 303 ;
304 [label="X[2] <= 33.206\nmse = 13239.993\nsamples = 15\nvalue = 590.325"] ;
303 -> 304 ;
305 [label="X[1582] <= 0.5\nmse = 1903.289\nsamples = 2\nvalue = 435.211"] ;
304 -> 305 ;
306 [label="mse = 0.0\nsamples = 1\nvalue = 373.514"] ;
305 -> 306 ;
307 [label="mse = -0.0\nsamples = 1\nvalue = 466.06"] ;
305 -> 307 ;
308 [label="X[3] <= 1992.0\nmse = 11057.564\nsamples = 13\nvalue = 611.477"] ;
304 -> 308 ;
309 [label="mse = 0.0\nsamples = 1\nvalue = 849.561"] ;
308 -> 309 ;
310 [label="X[0] <= 12.725\nmse = 8756.341\nsamples = 12\nvalue = 600.139"] ;
308 -> 310 ;
311 [label="X[2] <= 36.502\nmse = 8215.598\nsamples = 7\nvalue = 563.6"] ;
310 -> 311 ;
312 [label="X[1169] <= 0.5\nmse = 80.79\nsamples = 2\nvalue = 432.437"] ;
311 -> 312 ;
313 [label="mse = 0.0\nsamples = 1\nvalue = 423.449"] ;
312 -> 313 ;
314 [label="mse = 0.0\nsamples = 1\nvalue = 441.425"] ;
312 -> 314 ;
315 [label="X[2] <= 36.916\nmse = 5713.689\nsamples = 5\nvalue = 589.832"] ;
311 -> 315 ;
316 [label="mse = 0.0\nsamples = 1\nvalue = 772.328"] ;
315 -> 316 ;
317 [label="X[1591] <= 0.5\nmse = 2236.85\nsamples = 4\nvalue = 569.555"] ;
315 -> 317 ;
318 [label="X[1] <= 0.077\nmse = 2821.521\nsamples = 3\nvalue = 592.695"] ;
317 -> 318 ;
319 [label="X[111] <= 0.5\nmse = 182.143\nsamples = 2\nvalue = 550.173"] ;
318 -> 319 ;
320 [label="mse = 0.0\nsamples = 1\nvalue = 540.63"] ;
319 -> 320 ;
321 [label="mse = 0.0\nsamples = 1\nvalue = 569.259"] ;
319 -> 321 ;
322 [label="mse = 0.0\nsamples = 1\nvalue = 656.479"] ;
318 -> 322 ;
323 [label="mse = 0.0\nsamples = 1\nvalue = 540.63"] ;
317 -> 323 ;
324 [label="X[1] <= 0.014\nmse = 5323.525\nsamples = 5\nvalue = 648.859"] ;
310 -> 324 ;
325 [label="mse = 0.0\nsamples = 1\nvalue = 585.904"] ;
324 -> 325 ;
326 [label="X[904] <= 0.5\nmse = 5012.781\nsamples = 4\nvalue = 680.337"] ;
324 -> 326 ;
327 [label="X[3] <= 1999.5\nmse = 2248.436\nsamples = 3\nvalue = 655.28"] ;
326 -> 327 ;
328 [label="mse = 0.0\nsamples = 1\nvalue = 741.035"] ;
327 -> 328 ;
329 [label="X[0] <= 13.25\nmse = 512.443\nsamples = 2\nvalue = 633.842"] ;
327 -> 329 ;
330 [label="mse = 0.0\nsamples = 1\nvalue = 656.479"] ;
329 -> 330 ;
331 [label="mse = 0.0\nsamples = 1\nvalue = 611.204"] ;
329 -> 331 ;
332 [label="mse = 0.0\nsamples = 1\nvalue = 805.618"] ;
326 -> 332 ;
333 [label="X[2] <= 36.983\nmse = 10337.28\nsamples = 4\nvalue = 457.959"] ;
303 -> 333 ;
334 [label="X[0] <= 16.3\nmse = 53.638\nsamples = 2\nvalue = 316.255"] ;
333 -> 334 ;
335 [label="mse = 0.0\nsamples = 1\nvalue = 308.931"] ;
334 -> 335 ;
336 [label="mse = -0.0\nsamples = 1\nvalue = 323.579"] ;
334 -> 336 ;
337 [label="X[1] <= 0.061\nmse = 418.992\nsamples = 2\nvalue = 528.812"] ;
333 -> 337 ;
338 [label="mse = -0.0\nsamples = 1\nvalue = 540.63"] ;
337 -> 338 ;
339 [label="mse = -0.0\nsamples = 1\nvalue = 493.358"] ;
337 -> 339 ;
340 [label="X[2] <= 35.352\nmse = 42133.794\nsamples = 2\nvalue = 752.354"] ;
302 -> 340 ;
341 [label="mse = 0.0\nsamples = 1\nvalue = 1042.643"] ;
340 -> 341 ;
342 [label="mse = 0.0\nsamples = 1\nvalue = 607.21"] ;
340 -> 342 ;
343 [label="X[3] <= 1994.5\nmse = 33076.795\nsamples = 3\nvalue = 329.571"] ;
301 -> 343 ;
344 [label="mse = 0.0\nsamples = 1\nvalue = 73.238"] ;
343 -> 344 ;
345 [label="X[1579] <= 0.5\nmse = 335.238\nsamples = 2\nvalue = 457.738"] ;
343 -> 345 ;
346 [label="mse = 0.0\nsamples = 1\nvalue = 476.047"] ;
345 -> 346 ;
347 [label="mse = 0.0\nsamples = 1\nvalue = 439.428"] ;
345 -> 347 ;
348 [label="X[1304] <= 0.5\nmse = 4103.975\nsamples = 3\nvalue = 786.976"] ;
300 -> 348 ;
349 [label="X[2] <= 34.686\nmse = 623.376\nsamples = 2\nvalue = 744.032"] ;
348 -> 349 ;
350 [label="mse = 0.0\nsamples = 1\nvalue = 719.064"] ;
349 -> 350 ;
351 [label="mse = -0.0\nsamples = 1\nvalue = 768.999"] ;
349 -> 351 ;
352 [label="mse = -0.0\nsamples = 1\nvalue = 872.864"] ;
348 -> 352 ;
353 [label="X[1598] <= 0.5\nmse = 299.664\nsamples = 2\nvalue = 294.284"] ;
299 -> 353 ;
354 [label="mse = 0.0\nsamples = 1\nvalue = 311.594"] ;
353 -> 354 ;
355 [label="mse = 0.0\nsamples = 1\nvalue = 276.973"] ;
353 -> 355 ;
356 [label="mse = 0.0\nsamples = 1\nvalue = 99.87"] ;
298 -> 356 ;
357 [label="mse = -0.0\nsamples = 1\nvalue = 934.783"] ;
297 -> 357 ;
358 [label="X[1313] <= 0.5\nmse = 24923.615\nsamples = 2\nvalue = 950.319"] ;
296 -> 358 ;
359 [label="mse = 0.0\nsamples = 1\nvalue = 1061.951"] ;
358 -> 359 ;
360 [label="mse = -0.0\nsamples = 1\nvalue = 727.054"] ;
358 -> 360 ;
361 [label="X[3] <= 1994.5\nmse = 27117.012\nsamples = 3\nvalue = 353.984"] ;
295 -> 361 ;
362 [label="mse = 0.0\nsamples = 1\nvalue = 585.904"] ;
361 -> 362 ;
363 [label="X[1591] <= 0.5\nmse = 335.238\nsamples = 2\nvalue = 238.024"] ;
361 -> 363 ;
364 [label="mse = 0.0\nsamples = 1\nvalue = 256.333"] ;
363 -> 364 ;
365 [label="mse = 0.0\nsamples = 1\nvalue = 219.714"] ;
363 -> 365 ;
366 [label="X[3] <= 2005.5\nmse = 53871.348\nsamples = 67\nvalue = 665.197"] ;
294 -> 366 ;
367 [label="X[1370] <= 0.5\nmse = 49801.865\nsamples = 50\nvalue = 697.935"] ;
366 -> 367 ;
368 [label="X[0] <= 10.347\nmse = 46750.482\nsamples = 49\nvalue = 690.464"] ;
367 -> 368 ;
369 [label="X[1] <= 0.113\nmse = 28043.426\nsamples = 9\nvalue = 574.841"] ;
368 -> 369 ;
370 [label="X[2] <= 38.832\nmse = 25445.074\nsamples = 7\nvalue = 625.053"] ;
369 -> 370 ;
371 [label="mse = 0.0\nsamples = 1\nvalue = 284.297"] ;
370 -> 371 ;
372 [label="X[793] <= 0.5\nmse = 13937.125\nsamples = 6\nvalue = 662.915"] ;
370 -> 372 ;
373 [label="X[1599] <= 0.5\nmse = 2006.377\nsamples = 5\nvalue = 623.938"] ;
372 -> 373 ;
374 [label="X[1026] <= 0.5\nmse = 752.923\nsamples = 4\nvalue = 610.063"] ;
373 -> 374 ;
375 [label="X[1598] <= 0.5\nmse = 62.615\nsamples = 3\nvalue = 620.858"] ;
374 -> 375 ;
376 [label="mse = 0.0\nsamples = 1\nvalue = 628.515"] ;
375 -> 376 ;
377 [label="X[1581] <= 0.5\nmse = 7.979\nsamples = 2\nvalue = 613.202"] ;
375 -> 377 ;
378 [label="mse = 0.0\nsamples = 1\nvalue = 609.207"] ;
377 -> 378 ;
379 [label="mse = 0.0\nsamples = 1\nvalue = 615.199"] ;
377 -> 379 ;
380 [label="mse = 0.0\nsamples = 1\nvalue = 545.29"] ;
374 -> 380 ;
381 [label="mse = -0.0\nsamples = 1\nvalue = 721.061"] ;
373 -> 381 ;
382 [label="mse = 0.0\nsamples = 1\nvalue = 974.731"] ;
372 -> 382 ;
383 [label="X[716] <= 0.5\nmse = 287.252\nsamples = 2\nvalue = 407.47"] ;
369 -> 383 ;
384 [label="mse = 0.0\nsamples = 1\nvalue = 383.501"] ;
383 -> 384 ;
385 [label="mse = -0.0\nsamples = 1\nvalue = 419.454"] ;
383 -> 385 ;
386 [label="X[3] <= 2003.0\nmse = 47260.856\nsamples = 40\nvalue = 718.3"] ;
368 -> 386 ;
387 [label="X[1] <= 0.022\nmse = 32930.22\nsamples = 34\nvalue = 683.999"] ;
386 -> 387 ;
388 [label="X[1577] <= 0.5\nmse = 28893.53\nsamples = 7\nvalue = 571.256"] ;
387 -> 388 ;
389 [label="X[2] <= 43.66\nmse = 5854.748\nsamples = 5\nvalue = 506.341"] ;
388 -> 389 ;
390 [label="X[1595] <= 0.5\nmse = 2257.792\nsamples = 4\nvalue = 482.8"] ;
389 -> 390 ;
391 [label="X[0] <= 13.325\nmse = 378.668\nsamples = 2\nvalue = 529.533"] ;
390 -> 391 ;
392 [label="mse = 0.0\nsamples = 1\nvalue = 502.013"] ;
391 -> 392 ;
393 [label="mse = -0.0\nsamples = 1\nvalue = 543.293"] ;
391 -> 393 ;
394 [label="X[1569] <= 0.5\nmse = 800.692\nsamples = 2\nvalue = 447.75"] ;
390 -> 394 ;
395 [label="mse = 0.0\nsamples = 1\nvalue = 476.047"] ;
394 -> 395 ;
396 [label="mse = 0.0\nsamples = 1\nvalue = 419.454"] ;
394 -> 396 ;
397 [label="mse = -0.0\nsamples = 1\nvalue = 671.126"] ;
389 -> 397 ;
398 [label="X[1593] <= 0.5\nmse = 36768.216\nsamples = 2\nvalue = 830.918"] ;
388 -> 398 ;
399 [label="mse = 0.0\nsamples = 1\nvalue = 639.168"] ;
398 -> 399 ;
400 [label="mse = 0.0\nsamples = 1\nvalue = 1022.669"] ;
398 -> 400 ;
401 [label="X[795] <= 0.5\nmse = 29767.314\nsamples = 27\nvalue = 713.668"] ;
387 -> 401 ;
402 [label="X[2] <= 40.264\nmse = 26143.732\nsamples = 26\nvalue = 724.462"] ;
401 -> 402 ;
403 [label="X[1] <= 0.041\nmse = 20169.513\nsamples = 10\nvalue = 785.111"] ;
402 -> 403 ;
404 [label="X[2] <= 39.249\nmse = 631.771\nsamples = 3\nvalue = 938.612"] ;
403 -> 404 ;
405 [label="mse = 0.0\nsamples = 1\nvalue = 982.055"] ;
404 -> 405 ;
406 [label="X[1] <= 0.033\nmse = 3.546\nsamples = 2\nvalue = 924.13"] ;
404 -> 406 ;
407 [label="mse = 0.0\nsamples = 1\nvalue = 922.799"] ;
406 -> 407 ;
408 [label="mse = 0.0\nsamples = 1\nvalue = 926.794"] ;
406 -> 408 ;
409 [label="X[0] <= 11.325\nmse = 15590.357\nsamples = 7\nvalue = 729.293"] ;
403 -> 409 ;
410 [label="mse = 0.0\nsamples = 1\nvalue = 540.63"] ;
409 -> 410 ;
411 [label="X[1] <= 0.044\nmse = 9387.397\nsamples = 6\nvalue = 771.218"] ;
409 -> 411 ;
412 [label="mse = 0.0\nsamples = 1\nvalue = 1004.026"] ;
411 -> 412 ;
413 [label="X[1597] <= 0.5\nmse = 2939.003\nsamples = 5\nvalue = 742.117"] ;
411 -> 413 ;
414 [label="X[1] <= 0.045\nmse = 1165.142\nsamples = 3\nvalue = 705.748"] ;
413 -> 414 ;
415 [label="mse = 0.0\nsamples = 1\nvalue = 731.048"] ;
414 -> 415 ;
416 [label="X[1594] <= 0.5\nmse = 512.443\nsamples = 2\nvalue = 667.797"] ;
414 -> 416 ;
417 [label="mse = 0.0\nsamples = 1\nvalue = 690.435"] ;
416 -> 417 ;
418 [label="mse = -0.0\nsamples = 1\nvalue = 645.16"] ;
416 -> 418 ;
419 [label="X[1592] <= 0.5\nmse = 16.648\nsamples = 2\nvalue = 802.733"] ;
413 -> 419 ;
420 [label="mse = 0.0\nsamples = 1\nvalue = 805.618"] ;
419 -> 420 ;
421 [label="mse = -0.0\nsamples = 1\nvalue = 796.963"] ;
419 -> 421 ;
422 [label="X[1572] <= 0.5\nmse = 25999.179\nsamples = 16\nvalue = 683.111"] ;
402 -> 422 ;
423 [label="X[1568] <= 0.5\nmse = 17604.28\nsamples = 15\nvalue = 704.036"] ;
422 -> 423 ;
424 [label="X[1582] <= 0.5\nmse = 14445.941\nsamples = 14\nvalue = 690.168"] ;
423 -> 424 ;
425 [label="X[1] <= 0.142\nmse = 13240.941\nsamples = 12\nvalue = 673.642"] ;
424 -> 425 ;
426 [label="X[1593] <= 0.5\nmse = 11298.426\nsamples = 10\nvalue = 655.106"] ;
425 -> 426 ;
427 [label="X[2] <= 43.395\nmse = 6972.543\nsamples = 6\nvalue = 614.6"] ;
426 -> 427 ;
428 [label="X[1] <= 0.033\nmse = 4866.544\nsamples = 3\nvalue = 656.812"] ;
427 -> 428 ;
429 [label="mse = 0.0\nsamples = 1\nvalue = 589.233"] ;
428 -> 429 ;
430 [label="X[1594] <= 0.5\nmse = 599.328\nsamples = 2\nvalue = 724.39"] ;
428 -> 430 ;
431 [label="mse = 0.0\nsamples = 1\nvalue = 707.08"] ;
430 -> 431 ;
432 [label="mse = 0.0\nsamples = 1\nvalue = 759.012"] ;
430 -> 432 ;
433 [label="X[1577] <= 0.5\nmse = 3449.68\nsamples = 3\nvalue = 551.282"] ;
427 -> 433 ;
434 [label="X[1596] <= 0.5\nmse = 938.001\nsamples = 2\nvalue = 496.687"] ;
433 -> 434 ;
435 [label="mse = 0.0\nsamples = 1\nvalue = 466.06"] ;
434 -> 435 ;
436 [label="mse = 0.0\nsamples = 1\nvalue = 527.314"] ;
434 -> 436 ;
437 [label="mse = 0.0\nsamples = 1\nvalue = 605.878"] ;
433 -> 437 ;
438 [label="X[1] <= 0.051\nmse = 11216.213\nsamples = 4\nvalue = 722.615"] ;
426 -> 438 ;
439 [label="mse = 0.0\nsamples = 1\nvalue = 503.345"] ;
438 -> 439 ;
440 [label="X[1581] <= 0.5\nmse = 1920.402\nsamples = 3\nvalue = 766.469"] ;
438 -> 440 ;
441 [label="X[0] <= 17.05\nmse = 15.958\nsamples = 2\nvalue = 788.307"] ;
440 -> 441 ;
442 [label="mse = 0.0\nsamples = 1\nvalue = 792.302"] ;
441 -> 442 ;
443 [label="mse = 0.0\nsamples = 1\nvalue = 784.312"] ;
441 -> 443 ;
444 [label="mse = -0.0\nsamples = 1\nvalue = 679.116"] ;
440 -> 444 ;
445 [label="X[594] <= 0.5\nmse = 4042.912\nsamples = 2\nvalue = 821.93"] ;
425 -> 445 ;
446 [label="mse = 0.0\nsamples = 1\nvalue = 758.346"] ;
445 -> 446 ;
447 [label="mse = -0.0\nsamples = 1\nvalue = 885.514"] ;
445 -> 447 ;
448 [label="X[121] <= 0.5\nmse = 709.263\nsamples = 2\nvalue = 838.908"] ;
424 -> 448 ;
449 [label="mse = 0.0\nsamples = 1\nvalue = 812.276"] ;
448 -> 449 ;
450 [label="mse = 0.0\nsamples = 1\nvalue = 865.54"] ;
448 -> 450 ;
451 [label="mse = -0.0\nsamples = 1\nvalue = 981.389"] ;
423 -> 451 ;
452 [label="mse = -0.0\nsamples = 1\nvalue = 243.683"] ;
422 -> 452 ;
453 [label="mse = -0.0\nsamples = 1\nvalue = 314.258"] ;
401 -> 453 ;
454 [label="X[1] <= 0.045\nmse = 77193.571\nsamples = 6\nvalue = 992.708"] ;
386 -> 454 ;
455 [label="X[2] <= 43.509\nmse = 46089.218\nsamples = 3\nvalue = 1223.518"] ;
454 -> 455 ;
456 [label="X[1569] <= 0.5\nmse = 11136.433\nsamples = 2\nvalue = 1362.56"] ;
455 -> 456 ;
457 [label="mse = 0.0\nsamples = 1\nvalue = 1257.03"] ;
456 -> 457 ;
458 [label="mse = -0.0\nsamples = 1\nvalue = 1468.089"] ;
456 -> 458 ;
459 [label="mse = 0.0\nsamples = 1\nvalue = 945.436"] ;
455 -> 459 ;
460 [label="X[1581] <= 0.5\nmse = 1750.797\nsamples = 3\nvalue = 761.897"] ;
454 -> 460 ;
461 [label="X[924] <= 0.5\nmse = 32.028\nsamples = 2\nvalue = 791.303"] ;
460 -> 461 ;
462 [label="mse = 0.0\nsamples = 1\nvalue = 796.963"] ;
461 -> 462 ;
463 [label="mse = -0.0\nsamples = 1\nvalue = 785.644"] ;
461 -> 463 ;
464 [label="mse = 0.0\nsamples = 1\nvalue = 703.085"] ;
460 -> 464 ;
465 [label="mse = -0.0\nsamples = 1\nvalue = 1198.44"] ;
367 -> 465 ;
466 [label="X[1] <= 0.065\nmse = 54623.285\nsamples = 17\nvalue = 582.748"] ;
366 -> 466 ;
467 [label="X[1574] <= 0.5\nmse = 41673.046\nsamples = 11\nvalue = 511.081"] ;
466 -> 467 ;
468 [label="X[2] <= 40.797\nmse = 30831.836\nsamples = 10\nvalue = 472.998"] ;
467 -> 468 ;
469 [label="X[1] <= 0.035\nmse = 14590.201\nsamples = 3\nvalue = 301.053"] ;
468 -> 469 ;
470 [label="X[1569] <= 0.5\nmse = 5149.252\nsamples = 2\nvalue = 255.667"] ;
469 -> 470 ;
471 [label="mse = 0.0\nsamples = 1\nvalue = 314.258"] ;
470 -> 471 ;
472 [label="mse = 0.0\nsamples = 1\nvalue = 167.782"] ;
470 -> 472 ;
473 [label="mse = 0.0\nsamples = 1\nvalue = 527.979"] ;
469 -> 473 ;
474 [label="X[1] <= 0.034\nmse = 18384.486\nsamples = 7\nvalue = 552.358"] ;
468 -> 474 ;
475 [label="X[2] <= 41.261\nmse = 2111.635\nsamples = 4\nvalue = 630.735"] ;
474 -> 475 ;
476 [label="mse = 0.0\nsamples = 1\nvalue = 503.345"] ;
475 -> 476 ;
477 [label="X[0] <= 12.55\nmse = 93.506\nsamples = 3\nvalue = 646.658"] ;
475 -> 477 ;
478 [label="mse = 0.0\nsamples = 1\nvalue = 669.129"] ;
477 -> 478 ;
479 [label="X[121] <= 0.5\nmse = 24.426\nsamples = 2\nvalue = 643.448"] ;
477 -> 479 ;
480 [label="mse = 0.0\nsamples = 1\nvalue = 639.168"] ;
479 -> 480 ;
481 [label="mse = 0.0\nsamples = 1\nvalue = 649.155"] ;
479 -> 481 ;
482 [label="X[0] <= 16.3\nmse = 10078.495\nsamples = 3\nvalue = 376.011"] ;
474 -> 482 ;
483 [label="X[1] <= 0.048\nmse = 1149.007\nsamples = 2\nvalue = 431.438"] ;
482 -> 483 ;
484 [label="mse = 0.0\nsamples = 1\nvalue = 479.376"] ;
483 -> 484 ;
485 [label="mse = -0.0\nsamples = 1\nvalue = 407.47"] ;
483 -> 485 ;
486 [label="mse = 0.0\nsamples = 1\nvalue = 209.727"] ;
482 -> 486 ;
487 [label="mse = -0.0\nsamples = 1\nvalue = 872.864"] ;
467 -> 487 ;
488 [label="X[0] <= 7.362\nmse = 19054.953\nsamples = 6\nvalue = 833.582"] ;
466 -> 488 ;
489 [label="mse = 0.0\nsamples = 1\nvalue = 1118.544"] ;
488 -> 489 ;
490 [label="X[455] <= 0.5\nmse = 3377.087\nsamples = 5\nvalue = 776.589"] ;
488 -> 490 ;
491 [label="X[1574] <= 0.5\nmse = 2532.957\nsamples = 4\nvalue = 794.965"] ;
490 -> 491 ;
492 [label="X[594] <= 0.5\nmse = 444.866\nsamples = 3\nvalue = 822.041"] ;
491 -> 492 ;
493 [label="X[0] <= 10.682\nmse = 3.99\nsamples = 2\nvalue = 836.911"] ;
492 -> 493 ;
494 [label="mse = 0.0\nsamples = 1\nvalue = 834.913"] ;
493 -> 494 ;
495 [label="mse = 0.0\nsamples = 1\nvalue = 838.908"] ;
493 -> 495 ;
496 [label="mse = 0.0\nsamples = 1\nvalue = 792.302"] ;
492 -> 496 ;
497 [label="mse = -0.0\nsamples = 1\nvalue = 713.738"] ;
491 -> 497 ;
498 [label="mse = 0.0\nsamples = 1\nvalue = 703.085"] ;
490 -> 498 ;
499 [label="X[1592] <= 0.5\nmse = 48389.588\nsamples = 4\nvalue = 426.588"] ;
293 -> 499 ;
500 [label="X[1593] <= 0.5\nmse = 351.169\nsamples = 3\nvalue = 616.697"] ;
499 -> 500 ;
501 [label="X[1598] <= 0.5\nmse = 0.0\nsamples = 2\nvalue = 605.878"] ;
500 -> 501 ;
502 [label="mse = 0.0\nsamples = 1\nvalue = 605.878"] ;
501 -> 502 ;
503 [label="mse = 0.0\nsamples = 1\nvalue = 605.878"] ;
501 -> 503 ;
504 [label="mse = -0.0\nsamples = 1\nvalue = 649.155"] ;
500 -> 504 ;
505 [label="mse = 0.0\nsamples = 1\nvalue = 173.108"] ;
499 -> 505 ;
506 [label="mse = -0.0\nsamples = 1\nvalue = 1176.469"] ;
172 -> 506 ;
507 [label="X[1597] <= 0.5\nmse = 19923.21\nsamples = 2\nvalue = 1093.909"] ;
171 -> 507 ;
508 [label="mse = 0.0\nsamples = 1\nvalue = 952.76"] ;
507 -> 508 ;
509 [label="mse = -0.0\nsamples = 1\nvalue = 1235.059"] ;
507 -> 509 ;
510 [label="X[2] <= 46.323\nmse = 44269.386\nsamples = 4\nvalue = 914.809"] ;
170 -> 510 ;
511 [label="mse = 0.0\nsamples = 2\nvalue = 1086.586"] ;
510 -> 511 ;
512 [label="X[0] <= 12.98\nmse = 21.721\nsamples = 2\nvalue = 657.145"] ;
510 -> 512 ;
513 [label="mse = 0.0\nsamples = 1\nvalue = 652.484"] ;
512 -> 513 ;
514 [label="mse = -0.0\nsamples = 1\nvalue = 661.805"] ;
512 -> 514 ;
515 [label="X[1592] <= 0.5\nmse = 36658.252\nsamples = 3\nvalue = 867.371"] ;
169 -> 515 ;
516 [label="X[1594] <= 0.5\nmse = 1266.252\nsamples = 2\nvalue = 796.107"] ;
515 -> 516 ;
517 [label="mse = 0.0\nsamples = 1\nvalue = 755.017"] ;
516 -> 517 ;
518 [label="mse = 0.0\nsamples = 1\nvalue = 826.924"] ;
516 -> 518 ;
519 [label="mse = 0.0\nsamples = 1\nvalue = 1366.222"] ;
515 -> 519 ;
520 [label="mse = -0.0\nsamples = 1\nvalue = 173.108"] ;
168 -> 520 ;
521 [label="mse = -0.0\nsamples = 1\nvalue = 1398.18"] ;
167 -> 521 ;
522 [label="mse = 0.0\nsamples = 1\nvalue = 1193.114"] ;
166 -> 522 ;
523 [label="X[1] <= 0.039\nmse = 61550.767\nsamples = 5\nvalue = 882.185"] ;
165 -> 523 ;
524 [label="X[1590] <= 0.5\nmse = 1287.313\nsamples = 2\nvalue = 1142.513"] ;
523 -> 524 ;
525 [label="mse = 0.0\nsamples = 1\nvalue = 1098.57"] ;
524 -> 525 ;
526 [label="mse = -0.0\nsamples = 1\nvalue = 1171.808"] ;
524 -> 526 ;
527 [label="X[3] <= 1998.0\nmse = 8231.95\nsamples = 3\nvalue = 665.245"] ;
523 -> 527 ;
528 [label="mse = 0.0\nsamples = 1\nvalue = 476.047"] ;
527 -> 528 ;
529 [label="X[1598] <= 0.5\nmse = 1287.313\nsamples = 2\nvalue = 703.085"] ;
527 -> 529 ;
530 [label="mse = 0.0\nsamples = 1\nvalue = 732.38"] ;
529 -> 530 ;
531 [label="mse = 0.0\nsamples = 1\nvalue = 659.142"] ;
529 -> 531 ;
532 [label="mse = 0.0\nsamples = 1\nvalue = 1249.041"] ;
164 -> 532 ;
533 [label="mse = 0.0\nsamples = 1\nvalue = 1537.998"] ;
163 -> 533 ;
534 [label="X[1596] <= 0.5\nmse = 10404.993\nsamples = 2\nvalue = 1096.351"] ;
162 -> 534 ;
535 [label="mse = 0.0\nsamples = 1\nvalue = 952.094"] ;
534 -> 535 ;
536 [label="mse = 0.0\nsamples = 1\nvalue = 1168.479"] ;
534 -> 536 ;
537 [label="X[806] <= 0.5\nmse = 66409.75\nsamples = 33\nvalue = 444.188"] ;
161 -> 537 ;
538 [label="X[1396] <= 0.5\nmse = 41847.828\nsamples = 32\nvalue = 406.734"] ;
537 -> 538 ;
539 [label="X[0] <= 16.675\nmse = 26760.354\nsamples = 31\nvalue = 382.593"] ;
538 -> 539 ;
540 [label="X[1563] <= 0.5\nmse = 18739.232\nsamples = 24\nvalue = 339.114"] ;
539 -> 540 ;
541 [label="X[0] <= 6.71\nmse = 14854.259\nsamples = 22\nvalue = 365.175"] ;
540 -> 541 ;
542 [label="X[1573] <= 0.5\nmse = 2714.509\nsamples = 2\nvalue = 149.583"] ;
541 -> 542 ;
543 [label="mse = 0.0\nsamples = 1\nvalue = 186.424"] ;
542 -> 543 ;
544 [label="mse = -0.0\nsamples = 1\nvalue = 75.901"] ;
542 -> 544 ;
545 [label="X[0] <= 15.425\nmse = 11764.371\nsamples = 20\nvalue = 382.655"] ;
541 -> 545 ;
546 [label="X[1] <= 0.117\nmse = 8376.914\nsamples = 17\nvalue = 412.173"] ;
545 -> 546 ;
547 [label="X[1] <= 0.055\nmse = 5412.862\nsamples = 15\nvalue = 427.283"] ;
546 -> 547 ;
548 [label="X[1169] <= 0.5\nmse = 4777.619\nsamples = 10\nvalue = 399.447"] ;
547 -> 548 ;
549 [label="X[2] <= 42.763\nmse = 3579.486\nsamples = 9\nvalue = 407.96"] ;
548 -> 549 ;
550 [label="X[2] <= 36.436\nmse = 3341.888\nsamples = 7\nvalue = 427.348"] ;
549 -> 550 ;
551 [label="X[1582] <= 0.5\nmse = 74.805\nsamples = 2\nvalue = 361.196"] ;
550 -> 551 ;
552 [label="mse = 0.0\nsamples = 1\nvalue = 346.216"] ;
551 -> 552 ;
553 [label="mse = -0.0\nsamples = 1\nvalue = 366.19"] ;
551 -> 553 ;
554 [label="X[0] <= 7.825\nmse = 2198.114\nsamples = 5\nvalue = 453.809"] ;
550 -> 554 ;
555 [label="mse = 0.0\nsamples = 1\nvalue = 377.509"] ;
554 -> 555 ;
556 [label="X[0] <= 12.65\nmse = 928.332\nsamples = 4\nvalue = 472.884"] ;
554 -> 556 ;
557 [label="X[978] <= 0.5\nmse = 205.017\nsamples = 3\nvalue = 462.541"] ;
556 -> 557 ;
558 [label="X[1] <= 0.042\nmse = 11.987\nsamples = 2\nvalue = 453.676"] ;
557 -> 558 ;
559 [label="mse = 0.0\nsamples = 1\nvalue = 455.407"] ;
558 -> 559 ;
560 [label="mse = 0.0\nsamples = 1\nvalue = 446.752"] ;
558 -> 560 ;
561 [label="mse = -0.0\nsamples = 1\nvalue = 484.702"] ;
557 -> 561 ;
562 [label="mse = -0.0\nsamples = 1\nvalue = 545.29"] ;
556 -> 562 ;
563 [label="X[2] <= 45.259\nmse = 245.121\nsamples = 2\nvalue = 353.673"] ;
549 -> 563 ;
564 [label="mse = 0.0\nsamples = 1\nvalue = 340.89"] ;
563 -> 564 ;
565 [label="mse = 0.0\nsamples = 1\nvalue = 372.848"] ;
563 -> 565 ;
566 [label="mse = 0.0\nsamples = 1\nvalue = 237.691"] ;
548 -> 566 ;
567 [label="X[2] <= 46.223\nmse = 1276.182\nsamples = 5\nvalue = 489.141"] ;
547 -> 567 ;
568 [label="X[1] <= 0.075\nmse = 204.04\nsamples = 3\nvalue = 471.386"] ;
567 -> 568 ;
569 [label="X[1573] <= 0.5\nmse = 15.32\nsamples = 2\nvalue = 462.598"] ;
568 -> 569 ;
570 [label="mse = 0.0\nsamples = 1\nvalue = 467.392"] ;
569 -> 570 ;
571 [label="mse = -0.0\nsamples = 1\nvalue = 459.402"] ;
569 -> 571 ;
572 [label="mse = 0.0\nsamples = 1\nvalue = 493.358"] ;
568 -> 572 ;
573 [label="X[0] <= 14.0\nmse = 63.834\nsamples = 2\nvalue = 551.282"] ;
567 -> 573 ;
574 [label="mse = 0.0\nsamples = 1\nvalue = 559.272"] ;
573 -> 574 ;
575 [label="mse = -0.0\nsamples = 1\nvalue = 543.293"] ;
573 -> 575 ;
576 [label="X[0] <= 10.475\nmse = 44.329\nsamples = 2\nvalue = 193.082"] ;
546 -> 576 ;
577 [label="mse = 0.0\nsamples = 1\nvalue = 199.74"] ;
576 -> 577 ;
578 [label="mse = 0.0\nsamples = 1\nvalue = 186.424"] ;
576 -> 578 ;
579 [label="X[2] <= 40.514\nmse = 1505.067\nsamples = 3\nvalue = 230.145"] ;
545 -> 579 ;
580 [label="X[1044] <= 0.5\nmse = 606.864\nsamples = 2\nvalue = 179.1"] ;
579 -> 580 ;
581 [label="mse = 0.0\nsamples = 1\nvalue = 154.466"] ;
580 -> 581 ;
582 [label="mse = 0.0\nsamples = 1\nvalue = 203.735"] ;
580 -> 582 ;
583 [label="mse = 0.0\nsamples = 1\nvalue = 255.667"] ;
579 -> 583 ;
584 [label="X[922] <= 0.5\nmse = 920.163\nsamples = 2\nvalue = 130.63"] ;
540 -> 584 ;
585 [label="mse = 0.0\nsamples = 1\nvalue = 167.782"] ;
584 -> 585 ;
586 [label="mse = 0.0\nsamples = 1\nvalue = 105.862"] ;
584 -> 586 ;
587 [label="X[1269] <= 0.5\nmse = 16067.942\nsamples = 7\nvalue = 578.247"] ;
539 -> 587 ;
588 [label="X[0] <= 18.35\nmse = 9249.496\nsamples = 6\nvalue = 548.915"] ;
587 -> 588 ;
589 [label="X[335] <= 0.5\nmse = 1106.845\nsamples = 2\nvalue = 652.04"] ;
588 -> 589 ;
590 [label="mse = 0.0\nsamples = 1\nvalue = 628.515"] ;
589 -> 590 ;
591 [label="mse = -0.0\nsamples = 1\nvalue = 699.09"] ;
589 -> 591 ;
592 [label="X[1579] <= 0.5\nmse = 5344.743\nsamples = 4\nvalue = 497.353"] ;
588 -> 592 ;
593 [label="X[0] <= 19.175\nmse = 2136.102\nsamples = 3\nvalue = 453.077"] ;
592 -> 593 ;
594 [label="mse = 0.0\nsamples = 1\nvalue = 527.979"] ;
593 -> 594 ;
595 [label="X[1] <= 0.054\nmse = 354.632\nsamples = 2\nvalue = 428.109"] ;
593 -> 595 ;
596 [label="mse = 0.0\nsamples = 1\nvalue = 401.477"] ;
595 -> 596 ;
597 [label="mse = 0.0\nsamples = 1\nvalue = 441.425"] ;
595 -> 597 ;
598 [label="mse = -0.0\nsamples = 1\nvalue = 585.904"] ;
592 -> 598 ;
599 [label="mse = -0.0\nsamples = 1\nvalue = 842.237"] ;
587 -> 599 ;
600 [label="mse = 0.0\nsamples = 1\nvalue = 1070.606"] ;
538 -> 600 ;
601 [label="mse = -0.0\nsamples = 1\nvalue = 1155.829"] ;
537 -> 601 ;
602 [label="X[1] <= 0.017\nmse = 126159.281\nsamples = 215\nvalue = 807.855"] ;
160 -> 602 ;
603 [label="X[3] <= 1998.0\nmse = 168028.848\nsamples = 32\nvalue = 984.548"] ;
602 -> 603 ;
604 [label="X[0] <= 18.45\nmse = 109658.884\nsamples = 9\nvalue = 1309.998"] ;
603 -> 604 ;
605 [label="X[1] <= 0.004\nmse = 23219.56\nsamples = 7\nvalue = 1414.076"] ;
604 -> 605 ;
606 [label="X[2] <= 54.528\nmse = 15137.258\nsamples = 2\nvalue = 1168.701"] ;
605 -> 606 ;
607 [label="mse = 0.0\nsamples = 1\nvalue = 994.705"] ;
606 -> 607 ;
608 [label="mse = 0.0\nsamples = 1\nvalue = 1255.699"] ;
606 -> 608 ;
609 [label="X[700] <= 0.5\nmse = 7983.951\nsamples = 5\nvalue = 1470.701"] ;
605 -> 609 ;
610 [label="X[1576] <= 0.5\nmse = 3527.504\nsamples = 4\nvalue = 1430.937"] ;
609 -> 610 ;
611 [label="X[388] <= 0.5\nmse = 10.39\nsamples = 3\nvalue = 1460.599"] ;
610 -> 611 ;
612 [label="mse = -0.0\nsamples = 2\nvalue = 1458.102"] ;
611 -> 612 ;
613 [label="mse = 0.0\nsamples = 1\nvalue = 1464.76"] ;
611 -> 613 ;
614 [label="mse = -0.0\nsamples = 1\nvalue = 1312.292"] ;
610 -> 614 ;
615 [label="mse = -0.0\nsamples = 1\nvalue = 1603.246"] ;
609 -> 615 ;
616 [label="X[1577] <= 0.5\nmse = 21260.614\nsamples = 2\nvalue = 477.379"] ;
604 -> 616 ;
617 [label="mse = 0.0\nsamples = 1\nvalue = 623.189"] ;
616 -> 617 ;
618 [label="mse = 0.0\nsamples = 1\nvalue = 331.568"] ;
616 -> 618 ;
619 [label="X[0] <= 16.85\nmse = 110581.012\nsamples = 23\nvalue = 807.03"] ;
603 -> 619 ;
620 [label="X[1] <= 0.013\nmse = 59768.561\nsamples = 17\nvalue = 680.534"] ;
619 -> 620 ;
621 [label="X[1] <= 0.011\nmse = 60112.226\nsamples = 14\nvalue = 609.09"] ;
620 -> 621 ;
622 [label="X[1591] <= 0.5\nmse = 42545.467\nsamples = 11\nvalue = 680.115"] ;
621 -> 622 ;
623 [label="X[1455] <= 0.5\nmse = 26014.388\nsamples = 10\nvalue = 738.206"] ;
622 -> 623 ;
624 [label="X[73] <= 0.5\nmse = 15020.126\nsamples = 9\nvalue = 704.84"] ;
623 -> 624 ;
625 [label="X[0] <= 6.497\nmse = 12064.089\nsamples = 8\nvalue = 738.668"] ;
624 -> 625 ;
626 [label="mse = 0.0\nsamples = 1\nvalue = 490.029"] ;
625 -> 626 ;
627 [label="X[1532] <= 0.5\nmse = 4878.451\nsamples = 7\nvalue = 769.748"] ;
625 -> 627 ;
628 [label="X[1566] <= 0.5\nmse = 2076.459\nsamples = 6\nvalue = 748.835"] ;
627 -> 628 ;
629 [label="X[1593] <= 0.5\nmse = 1477.398\nsamples = 5\nvalue = 760.455"] ;
628 -> 629 ;
630 [label="X[2] <= 52.631\nmse = 387.297\nsamples = 4\nvalue = 785.145"] ;
629 -> 630 ;
631 [label="X[816] <= 0.5\nmse = 113.482\nsamples = 2\nvalue = 767.002"] ;
630 -> 631 ;
632 [label="mse = 0.0\nsamples = 1\nvalue = 777.654"] ;
631 -> 632 ;
633 [label="mse = -0.0\nsamples = 1\nvalue = 756.349"] ;
631 -> 633 ;
634 [label="X[1595] <= 0.5\nmse = 2.771\nsamples = 2\nvalue = 803.288"] ;
630 -> 634 ;
635 [label="mse = 0.0\nsamples = 1\nvalue = 801.623"] ;
634 -> 635 ;
636 [label="mse = 0.0\nsamples = 1\nvalue = 804.952"] ;
634 -> 636 ;
637 [label="mse = -0.0\nsamples = 1\nvalue = 711.074"] ;
629 -> 637 ;
638 [label="mse = 0.0\nsamples = 1\nvalue = 679.116"] ;
628 -> 638 ;
639 [label="mse = -0.0\nsamples = 1\nvalue = 916.141"] ;
627 -> 639 ;
640 [label="mse = -0.0\nsamples = 1\nvalue = 552.614"] ;
624 -> 640 ;
641 [label="mse = 0.0\nsamples = 1\nvalue = 1105.228"] ;
623 -> 641 ;
642 [label="mse = -0.0\nsamples = 1\nvalue = 331.568"] ;
622 -> 642 ;
643 [label="X[0] <= 10.915\nmse = 8689.364\nsamples = 3\nvalue = 277.639"] ;
621 -> 643 ;
644 [label="mse = 0.0\nsamples = 2\nvalue = 343.553"] ;
643 -> 644 ;
645 [label="mse = -0.0\nsamples = 1\nvalue = 145.81"] ;
643 -> 645 ;
646 [label="X[0] <= 9.365\nmse = 3355.616\nsamples = 3\nvalue = 882.962"] ;
620 -> 646 ;
647 [label="mse = 0.0\nsamples = 1\nvalue = 828.921"] ;
646 -> 647 ;
648 [label="X[700] <= 0.5\nmse = 870.424\nsamples = 2\nvalue = 937.003"] ;
646 -> 648 ;
649 [label="mse = 0.0\nsamples = 1\nvalue = 978.726"] ;
648 -> 649 ;
650 [label="mse = 0.0\nsamples = 1\nvalue = 916.141"] ;
648 -> 650 ;
651 [label="X[1586] <= 0.5\nmse = 106000.523\nsamples = 6\nvalue = 1097.971"] ;
619 -> 651 ;
652 [label="X[1565] <= 0.5\nmse = 80136.374\nsamples = 4\nvalue = 1276.117"] ;
651 -> 652 ;
653 [label="X[2] <= 55.326\nmse = 416.444\nsamples = 3\nvalue = 1402.441"] ;
652 -> 653 ;
654 [label="mse = 0.0\nsamples = 1\nvalue = 1436.796"] ;
653 -> 654 ;
655 [label="X[1598] <= 0.5\nmse = 151.716\nsamples = 2\nvalue = 1393.852"] ;
653 -> 655 ;
656 [label="mse = 0.0\nsamples = 1\nvalue = 1381.535"] ;
655 -> 656 ;
657 [label="mse = 0.0\nsamples = 1\nvalue = 1406.17"] ;
655 -> 657 ;
658 [label="mse = -0.0\nsamples = 1\nvalue = 644.494"] ;
652 -> 658 ;
659 [label="X[1439] <= 0.5\nmse = 25786.906\nsamples = 2\nvalue = 830.752"] ;
651 -> 659 ;
660 [label="mse = 0.0\nsamples = 1\nvalue = 923.465"] ;
659 -> 660 ;
661 [label="mse = -0.0\nsamples = 1\nvalue = 552.614"] ;
659 -> 661 ;
662 [label="X[1590] <= 0.5\nmse = 111810.639\nsamples = 183\nvalue = 775.671"] ;
602 -> 662 ;
663 [label="X[31] <= 0.5\nmse = 95403.378\nsamples = 162\nvalue = 749.881"] ;
662 -> 663 ;
664 [label="X[528] <= 0.5\nmse = 93808.214\nsamples = 160\nvalue = 758.216"] ;
663 -> 664 ;
665 [label="X[2] <= 62.054\nmse = 91114.407\nsamples = 158\nvalue = 765.876"] ;
664 -> 665 ;
666 [label="X[1594] <= 0.5\nmse = 89599.925\nsamples = 156\nvalue = 774.23"] ;
665 -> 666 ;
667 [label="X[1] <= 0.088\nmse = 84505.224\nsamples = 132\nvalue = 801.437"] ;
666 -> 667 ;
668 [label="X[1] <= 0.054\nmse = 86204.935\nsamples = 89\nvalue = 761.865"] ;
667 -> 668 ;
669 [label="X[2] <= 55.977\nmse = 75481.496\nsamples = 55\nvalue = 822.921"] ;
668 -> 669 ;
670 [label="X[2] <= 54.347\nmse = 88633.243\nsamples = 33\nvalue = 888.299"] ;
669 -> 670 ;
671 [label="X[1] <= 0.021\nmse = 77213.173\nsamples = 31\nvalue = 856.002"] ;
670 -> 671 ;
672 [label="X[1591] <= 0.5\nmse = 70457.597\nsamples = 8\nvalue = 718.787"] ;
671 -> 672 ;
673 [label="X[1] <= 0.017\nmse = 17618.344\nsamples = 7\nvalue = 580.652"] ;
672 -> 673 ;
674 [label="X[1601] <= 0.5\nmse = 524.953\nsamples = 2\nvalue = 761.453"] ;
673 -> 674 ;
675 [label="mse = 0.0\nsamples = 1\nvalue = 729.051"] ;
674 -> 675 ;
676 [label="mse = -0.0\nsamples = 1\nvalue = 777.654"] ;
674 -> 676 ;
677 [label="X[2] <= 50.682\nmse = 1648.102\nsamples = 5\nvalue = 490.251"] ;
673 -> 677 ;
678 [label="X[1599] <= 0.5\nmse = 303.543\nsamples = 3\nvalue = 467.724"] ;
677 -> 678 ;
679 [label="mse = 0.0\nsamples = 1\nvalue = 492.692"] ;
678 -> 679 ;
680 [label="X[0] <= 11.135\nmse = 127.667\nsamples = 2\nvalue = 459.402"] ;
678 -> 680 ;
681 [label="mse = 0.0\nsamples = 1\nvalue = 443.423"] ;
680 -> 681 ;
682 [label="mse = 0.0\nsamples = 1\nvalue = 467.392"] ;
680 -> 682 ;
683 [label="X[1586] <= 0.5\nmse = 1292.633\nsamples = 2\nvalue = 535.303"] ;
677 -> 683 ;
684 [label="mse = 0.0\nsamples = 1\nvalue = 571.256"] ;
683 -> 684 ;
685 [label="mse = -0.0\nsamples = 1\nvalue = 499.35"] ;
683 -> 685 ;
686 [label="mse = 0.0\nsamples = 1\nvalue = 1133.192"] ;
672 -> 686 ;
687 [label="X[1] <= 0.023\nmse = 70606.968\nsamples = 23\nvalue = 904.431"] ;
671 -> 687 ;
688 [label="mse = 0.0\nsamples = 1\nvalue = 1298.31"] ;
687 -> 688 ;
689 [label="X[1586] <= 0.5\nmse = 56577.699\nsamples = 22\nvalue = 851.913"] ;
687 -> 689 ;
690 [label="X[1] <= 0.047\nmse = 47569.97\nsamples = 16\nvalue = 910.681"] ;
689 -> 690 ;
691 [label="X[1] <= 0.047\nmse = 41297.135\nsamples = 15\nvalue = 931.629"] ;
690 -> 691 ;
692 [label="X[1] <= 0.044\nmse = 31580.459\nsamples = 14\nvalue = 906.487"] ;
691 -> 692 ;
693 [label="X[1] <= 0.042\nmse = 25211.233\nsamples = 12\nvalue = 951.117"] ;
692 -> 693 ;
694 [label="X[1] <= 0.041\nmse = 18258.608\nsamples = 9\nvalue = 907.929"] ;
693 -> 694 ;
695 [label="X[1581] <= 0.5\nmse = 11877.774\nsamples = 8\nvalue = 933.815"] ;
694 -> 695 ;
696 [label="X[0] <= 7.868\nmse = 7476.807\nsamples = 7\nvalue = 956.355"] ;
695 -> 696 ;
697 [label="X[3] <= 2000.5\nmse = 8399.255\nsamples = 2\nvalue = 1036.873"] ;
696 -> 697 ;
698 [label="mse = 0.0\nsamples = 1\nvalue = 972.068"] ;
697 -> 698 ;
699 [label="mse = 0.0\nsamples = 1\nvalue = 1166.482"] ;
697 -> 699 ;
700 [label="X[1573] <= 0.5\nmse = 3112.255\nsamples = 5\nvalue = 921.848"] ;
696 -> 700 ;
701 [label="X[2] <= 48.771\nmse = 1152.467\nsamples = 4\nvalue = 940.664"] ;
700 -> 701 ;
702 [label="X[1574] <= 0.5\nmse = 60.592\nsamples = 2\nvalue = 918.97"] ;
701 -> 702 ;
703 [label="mse = 0.0\nsamples = 1\nvalue = 923.465"] ;
702 -> 703 ;
704 [label="mse = -0.0\nsamples = 1\nvalue = 905.488"] ;
702 -> 704 ;
705 [label="X[0] <= 15.225\nmse = 512.443\nsamples = 2\nvalue = 984.052"] ;
701 -> 705 ;
706 [label="mse = 0.0\nsamples = 1\nvalue = 961.415"] ;
705 -> 706 ;
707 [label="mse = -0.0\nsamples = 1\nvalue = 1006.69"] ;
705 -> 707 ;
708 [label="mse = 0.0\nsamples = 1\nvalue = 808.947"] ;
700 -> 708 ;
709 [label="mse = -0.0\nsamples = 1\nvalue = 708.411"] ;
695 -> 709 ;
710 [label="mse = 0.0\nsamples = 1\nvalue = 623.189"] ;
694 -> 710 ;
711 [label="X[2] <= 50.468\nmse = 15717.277\nsamples = 3\nvalue = 1123.87"] ;
693 -> 711 ;
712 [label="X[1601] <= 0.5\nmse = 9192.054\nsamples = 2\nvalue = 1054.627"] ;
711 -> 712 ;
713 [label="mse = 0.0\nsamples = 1\nvalue = 958.752"] ;
712 -> 713 ;
714 [label="mse = 0.0\nsamples = 1\nvalue = 1150.502"] ;
712 -> 714 ;
715 [label="mse = -0.0\nsamples = 1\nvalue = 1262.357"] ;
711 -> 715 ;
716 [label="X[1565] <= 0.5\nmse = 3669.355\nsamples = 2\nvalue = 683.333"] ;
692 -> 716 ;
717 [label="mse = 0.0\nsamples = 1\nvalue = 640.5"] ;
716 -> 717 ;
718 [label="mse = 0.0\nsamples = 1\nvalue = 768.999"] ;
716 -> 718 ;
719 [label="mse = -0.0\nsamples = 1\nvalue = 1384.198"] ;
691 -> 719 ;
720 [label="mse = -0.0\nsamples = 1\nvalue = 512.666"] ;
690 -> 720 ;
721 [label="X[0] <= 18.725\nmse = 53871.128\nsamples = 6\nvalue = 734.377"] ;
689 -> 721 ;
722 [label="X[1583] <= 0.5\nmse = 16799.211\nsamples = 5\nvalue = 799.996"] ;
721 -> 722 ;
723 [label="X[1251] <= 0.5\nmse = 8499.525\nsamples = 4\nvalue = 766.003"] ;
722 -> 723 ;
724 [label="X[764] <= 0.5\nmse = 1322.704\nsamples = 3\nvalue = 798.389"] ;
723 -> 724 ;
725 [label="X[1567] <= 0.5\nmse = 279.605\nsamples = 2\nvalue = 827.922"] ;
724 -> 725 ;
726 [label="mse = 0.0\nsamples = 1\nvalue = 837.576"] ;
725 -> 726 ;
727 [label="mse = 0.0\nsamples = 1\nvalue = 798.96"] ;
725 -> 727 ;
728 [label="mse = 0.0\nsamples = 1\nvalue = 759.012"] ;
724 -> 728 ;
729 [label="mse = 0.0\nsamples = 1\nvalue = 539.298"] ;
723 -> 729 ;
730 [label="mse = -0.0\nsamples = 1\nvalue = 1071.938"] ;
722 -> 730 ;
731 [label="mse = -0.0\nsamples = 1\nvalue = 143.813"] ;
721 -> 731 ;
732 [label="X[1586] <= 0.5\nmse = 2490.401\nsamples = 2\nvalue = 1383.532"] ;
670 -> 732 ;
733 [label="mse = 0.0\nsamples = 1\nvalue = 1348.245"] ;
732 -> 733 ;
734 [label="mse = -0.0\nsamples = 1\nvalue = 1454.107"] ;
732 -> 734 ;
735 [label="X[3] <= 2004.5\nmse = 41489.544\nsamples = 22\nvalue = 728.699"] ;
669 -> 735 ;
736 [label="X[99] <= 0.5\nmse = 39608.237\nsamples = 16\nvalue = 795.51"] ;
735 -> 736 ;
737 [label="X[1003] <= 0.5\nmse = 30151.596\nsamples = 15\nvalue = 772.804"] ;
736 -> 737 ;
738 [label="X[2] <= 59.99\nmse = 14278.974\nsamples = 13\nvalue = 730.42"] ;
737 -> 738 ;
739 [label="X[343] <= 0.5\nmse = 6969.732\nsamples = 9\nvalue = 783.314"] ;
738 -> 739 ;
740 [label="X[2] <= 59.006\nmse = 3738.492\nsamples = 8\nvalue = 801.26"] ;
739 -> 740 ;
741 [label="X[2] <= 56.276\nmse = 1699.08\nsamples = 6\nvalue = 779.874"] ;
740 -> 741 ;
742 [label="mse = 0.0\nsamples = 1\nvalue = 671.126"] ;
741 -> 742 ;
743 [label="X[1595] <= 0.5\nmse = 248.436\nsamples = 5\nvalue = 793.467"] ;
741 -> 743 ;
744 [label="X[549] <= 0.5\nmse = 20.852\nsamples = 4\nvalue = 805.352"] ;
743 -> 744 ;
745 [label="mse = 0.0\nsamples = 2\nvalue = 810.944"] ;
744 -> 745 ;
746 [label="X[1591] <= 0.5\nmse = 0.0\nsamples = 2\nvalue = 801.623"] ;
744 -> 746 ;
747 [label="mse = 0.0\nsamples = 1\nvalue = 801.623"] ;
746 -> 747 ;
748 [label="mse = 0.0\nsamples = 1\nvalue = 801.623"] ;
746 -> 748 ;
749 [label="mse = -0.0\nsamples = 1\nvalue = 773.66"] ;
743 -> 749 ;
750 [label="X[1573] <= 0.5\nmse = 1595.843\nsamples = 2\nvalue = 897.498"] ;
740 -> 750 ;
751 [label="mse = 0.0\nsamples = 1\nvalue = 857.55"] ;
750 -> 751 ;
752 [label="mse = 0.0\nsamples = 1\nvalue = 937.446"] ;
750 -> 752 ;
753 [label="mse = 0.0\nsamples = 1\nvalue = 585.904"] ;
739 -> 753 ;
754 [label="X[1] <= 0.032\nmse = 12110.735\nsamples = 4\nvalue = 624.631"] ;
738 -> 754 ;
755 [label="X[1598] <= 0.5\nmse = 2801.701\nsamples = 2\nvalue = 486.367"] ;
754 -> 755 ;
756 [label="mse = 0.0\nsamples = 1\nvalue = 433.436"] ;
755 -> 756 ;
757 [label="mse = 0.0\nsamples = 1\nvalue = 539.298"] ;
755 -> 757 ;
758 [label="X[1593] <= 0.5\nmse = 2427.454\nsamples = 2\nvalue = 693.764"] ;
754 -> 758 ;
759 [label="mse = 0.0\nsamples = 1\nvalue = 644.494"] ;
758 -> 759 ;
760 [label="mse = 0.0\nsamples = 1\nvalue = 743.033"] ;
758 -> 760 ;
761 [label="X[1563] <= 0.5\nmse = 49938.45\nsamples = 2\nvalue = 1027.107"] ;
737 -> 761 ;
762 [label="mse = 0.0\nsamples = 1\nvalue = 1185.124"] ;
761 -> 762 ;
763 [label="mse = 0.0\nsamples = 1\nvalue = 711.074"] ;
761 -> 763 ;
764 [label="mse = -0.0\nsamples = 1\nvalue = 1272.344"] ;
736 -> 764 ;
765 [label="X[1574] <= 0.5\nmse = 21751.816\nsamples = 6\nvalue = 606.211"] ;
735 -> 765 ;
766 [label="X[99] <= 0.5\nmse = 17795.616\nsamples = 5\nvalue = 659.142"] ;
765 -> 766 ;
767 [label="X[1599] <= 0.5\nmse = 7731.082\nsamples = 4\nvalue = 696.094"] ;
766 -> 767 ;
768 [label="mse = 0.0\nsamples = 1\nvalue = 866.872"] ;
767 -> 768 ;
769 [label="X[1578] <= 0.5\nmse = 4073.886\nsamples = 3\nvalue = 671.697"] ;
767 -> 769 ;
770 [label="X[0] <= 13.478\nmse = 255.441\nsamples = 2\nvalue = 632.244"] ;
769 -> 770 ;
771 [label="mse = 0.0\nsamples = 1\nvalue = 651.818"] ;
770 -> 771 ;
772 [label="mse = 0.0\nsamples = 1\nvalue = 619.194"] ;
770 -> 772 ;
773 [label="mse = 0.0\nsamples = 1\nvalue = 770.331"] ;
769 -> 773 ;
774 [label="mse = -0.0\nsamples = 1\nvalue = 363.527"] ;
766 -> 774 ;
775 [label="mse = -0.0\nsamples = 1\nvalue = 447.418"] ;
765 -> 775 ;
776 [label="X[0] <= 8.59\nmse = 86933.178\nsamples = 34\nvalue = 654.042"] ;
668 -> 776 ;
777 [label="X[1567] <= 0.5\nmse = 29837.068\nsamples = 6\nvalue = 465.328"] ;
776 -> 777 ;
778 [label="X[1599] <= 0.5\nmse = 12964.608\nsamples = 5\nvalue = 395.568"] ;
777 -> 778 ;
779 [label="X[2] <= 57.659\nmse = 8317.816\nsamples = 4\nvalue = 327.307"] ;
778 -> 779 ;
780 [label="X[1598] <= 0.5\nmse = 2837.94\nsamples = 3\nvalue = 366.19"] ;
779 -> 780 ;
781 [label="X[1] <= 0.068\nmse = 31.917\nsamples = 2\nvalue = 335.563"] ;
780 -> 781 ;
782 [label="mse = 0.0\nsamples = 1\nvalue = 343.553"] ;
781 -> 782 ;
783 [label="mse = 0.0\nsamples = 1\nvalue = 331.568"] ;
781 -> 783 ;
784 [label="mse = -0.0\nsamples = 1\nvalue = 458.07"] ;
780 -> 784 ;
785 [label="mse = 0.0\nsamples = 1\nvalue = 171.776"] ;
779 -> 785 ;
786 [label="mse = 0.0\nsamples = 1\nvalue = 509.337"] ;
778 -> 786 ;
787 [label="mse = 0.0\nsamples = 1\nvalue = 744.364"] ;
777 -> 787 ;
788 [label="X[431] <= 0.5\nmse = 90137.963\nsamples = 28\nvalue = 705.046"] ;
776 -> 788 ;
789 [label="X[1] <= 0.057\nmse = 75912.861\nsamples = 25\nvalue = 738.957"] ;
788 -> 789 ;
790 [label="X[1592] <= 0.5\nmse = 794.015\nsamples = 3\nvalue = 499.184"] ;
789 -> 790 ;
791 [label="X[1595] <= 0.5\nmse = 5.43\nsamples = 2\nvalue = 471.054"] ;
790 -> 791 ;
792 [label="mse = 0.0\nsamples = 1\nvalue = 468.723"] ;
791 -> 792 ;
793 [label="mse = 0.0\nsamples = 1\nvalue = 473.384"] ;
791 -> 793 ;
794 [label="mse = 0.0\nsamples = 1\nvalue = 527.314"] ;
790 -> 794 ;
795 [label="X[1] <= 0.057\nmse = 77250.453\nsamples = 22\nvalue = 772.03"] ;
789 -> 795 ;
796 [label="mse = 0.0\nsamples = 1\nvalue = 1364.89"] ;
795 -> 796 ;
797 [label="X[1593] <= 0.5\nmse = 67008.093\nsamples = 21\nvalue = 750.856"] ;
795 -> 797 ;
798 [label="X[1] <= 0.069\nmse = 61914.17\nsamples = 19\nvalue = 724.723"] ;
797 -> 798 ;
799 [label="X[2] <= 57.606\nmse = 23331.096\nsamples = 9\nvalue = 631.905"] ;
798 -> 799 ;
800 [label="X[0] <= 16.275\nmse = 17384.227\nsamples = 5\nvalue = 705.177"] ;
799 -> 800 ;
801 [label="X[1] <= 0.058\nmse = 8807.229\nsamples = 4\nvalue = 664.69"] ;
800 -> 801 ;
802 [label="mse = 0.0\nsamples = 1\nvalue = 491.36"] ;
801 -> 802 ;
803 [label="X[1] <= 0.066\nmse = 3358.291\nsamples = 3\nvalue = 699.356"] ;
801 -> 803 ;
804 [label="X[139] <= 0.5\nmse = 0.099\nsamples = 2\nvalue = 652.04"] ;
803 -> 804 ;
805 [label="mse = 0.0\nsamples = 1\nvalue = 651.818"] ;
804 -> 805 ;
806 [label="mse = -0.0\nsamples = 1\nvalue = 652.484"] ;
804 -> 806 ;
807 [label="mse = 0.0\nsamples = 1\nvalue = 770.331"] ;
803 -> 807 ;
808 [label="mse = -0.0\nsamples = 1\nvalue = 948.099"] ;
800 -> 808 ;
809 [label="X[1592] <= 0.5\nmse = 7900.419\nsamples = 4\nvalue = 503.678"] ;
799 -> 809 ;
810 [label="X[1] <= 0.06\nmse = 780.288\nsamples = 3\nvalue = 553.058"] ;
809 -> 810 ;
811 [label="mse = 0.0\nsamples = 1\nvalue = 592.562"] ;
810 -> 811 ;
812 [label="mse = -0.0\nsamples = 2\nvalue = 533.306"] ;
810 -> 812 ;
813 [label="mse = 0.0\nsamples = 1\nvalue = 355.537"] ;
809 -> 813 ;
814 [label="X[1] <= 0.069\nmse = 79257.437\nsamples = 10\nvalue = 792.79"] ;
798 -> 814 ;
815 [label="mse = 0.0\nsamples = 1\nvalue = 1547.319"] ;
814 -> 815 ;
816 [label="X[1] <= 0.07\nmse = 41348.739\nsamples = 9\nvalue = 738.895"] ;
814 -> 816 ;
817 [label="mse = 0.0\nsamples = 1\nvalue = 386.83"] ;
816 -> 817 ;
818 [label="X[1597] <= 0.5\nmse = 24138.78\nsamples = 8\nvalue = 797.573"] ;
816 -> 818 ;
819 [label="X[2] <= 57.023\nmse = 5589.26\nsamples = 7\nvalue = 839.15"] ;
818 -> 819 ;
820 [label="X[1547] <= 0.5\nmse = 3085.803\nsamples = 5\nvalue = 793.634"] ;
819 -> 820 ;
821 [label="X[1564] <= 0.5\nmse = 1050.104\nsamples = 4\nvalue = 812.72"] ;
820 -> 821 ;
822 [label="X[1601] <= 0.5\nmse = 25.218\nsamples = 2\nvalue = 781.205"] ;
821 -> 822 ;
823 [label="mse = 0.0\nsamples = 1\nvalue = 788.307"] ;
822 -> 823 ;
824 [label="mse = 0.0\nsamples = 1\nvalue = 777.654"] ;
822 -> 824 ;
825 [label="X[1] <= 0.075\nmse = 88.658\nsamples = 2\nvalue = 844.234"] ;
821 -> 825 ;
826 [label="mse = 0.0\nsamples = 1\nvalue = 830.918"] ;
825 -> 826 ;
827 [label="mse = 0.0\nsamples = 1\nvalue = 850.892"] ;
825 -> 827 ;
828 [label="mse = 0.0\nsamples = 1\nvalue = 679.116"] ;
820 -> 828 ;
829 [label="mse = -0.0\nsamples = 2\nvalue = 918.804"] ;
819 -> 829 ;
830 [label="mse = 0.0\nsamples = 1\nvalue = 340.224"] ;
818 -> 830 ;
831 [label="X[2] <= 53.165\nmse = 8938.492\nsamples = 2\nvalue = 1090.58"] ;
797 -> 831 ;
832 [label="mse = 0.0\nsamples = 1\nvalue = 996.037"] ;
831 -> 832 ;
833 [label="mse = -0.0\nsamples = 1\nvalue = 1185.124"] ;
831 -> 833 ;
834 [label="X[1598] <= 0.5\nmse = 119738.599\nsamples = 3\nvalue = 425.28"] ;
788 -> 834 ;
835 [label="mse = 0.0\nsamples = 1\nvalue = 1020.671"] ;
834 -> 835 ;
836 [label="X[1591] <= 0.5\nmse = 2099.814\nsamples = 2\nvalue = 226.816"] ;
834 -> 836 ;
837 [label="mse = 0.0\nsamples = 1\nvalue = 291.62"] ;
836 -> 837 ;
838 [label="mse = 0.0\nsamples = 1\nvalue = 194.414"] ;
836 -> 838 ;
839 [label="X[483] <= 0.5\nmse = 70077.982\nsamples = 43\nvalue = 887.178"] ;
667 -> 839 ;
840 [label="X[1579] <= 0.5\nmse = 62558.704\nsamples = 42\nvalue = 875.132"] ;
839 -> 840 ;
841 [label="X[1575] <= 0.5\nmse = 55744.084\nsamples = 41\nvalue = 863.566"] ;
840 -> 841 ;
842 [label="X[938] <= 0.5\nmse = 50856.114\nsamples = 40\nvalue = 853.509"] ;
841 -> 842 ;
843 [label="X[2] <= 59.608\nmse = 43056.133\nsamples = 38\nvalue = 835.456"] ;
842 -> 843 ;
844 [label="X[1] <= 0.099\nmse = 39284.102\nsamples = 34\nvalue = 808.295"] ;
843 -> 844 ;
845 [label="X[0] <= 8.235\nmse = 22520.515\nsamples = 6\nvalue = 948.898"] ;
844 -> 845 ;
846 [label="mse = 0.0\nsamples = 1\nvalue = 744.364"] ;
845 -> 846 ;
847 [label="X[1586] <= 0.5\nmse = 15077.5\nsamples = 5\nvalue = 1000.032"] ;
845 -> 847 ;
848 [label="X[1] <= 0.098\nmse = 417.253\nsamples = 4\nvalue = 1045.877"] ;
847 -> 848 ;
849 [label="X[3] <= 2005.5\nmse = 55.606\nsamples = 3\nvalue = 1033.588"] ;
848 -> 849 ;
850 [label="mse = 0.0\nsamples = 2\nvalue = 1037.316"] ;
849 -> 850 ;
851 [label="mse = -0.0\nsamples = 1\nvalue = 1018.674"] ;
849 -> 851 ;
852 [label="mse = 0.0\nsamples = 1\nvalue = 1076.599"] ;
848 -> 852 ;
853 [label="mse = -0.0\nsamples = 1\nvalue = 679.116"] ;
847 -> 853 ;
854 [label="X[1052] <= 0.5\nmse = 37213.647\nsamples = 28\nvalue = 772.243"] ;
844 -> 854 ;
855 [label="X[672] <= 0.5\nmse = 33347.845\nsamples = 26\nvalue = 756.439"] ;
854 -> 855 ;
856 [label="X[1573] <= 0.5\nmse = 31326.445\nsamples = 24\nvalue = 741.948"] ;
855 -> 856 ;
857 [label="X[0] <= 7.735\nmse = 30248.942\nsamples = 20\nvalue = 715.957"] ;
856 -> 857 ;
858 [label="X[1] <= 0.139\nmse = 53995.012\nsamples = 5\nvalue = 820.361"] ;
857 -> 858 ;
859 [label="X[1] <= 0.139\nmse = 28690.149\nsamples = 4\nvalue = 750.357"] ;
858 -> 859 ;
860 [label="X[1] <= 0.137\nmse = 1064.427\nsamples = 3\nvalue = 824.926"] ;
859 -> 860 ;
861 [label="X[1593] <= 0.5\nmse = 173.77\nsamples = 2\nvalue = 799.626"] ;
860 -> 861 ;
862 [label="mse = 0.0\nsamples = 1\nvalue = 808.947"] ;
861 -> 862 ;
863 [label="mse = 0.0\nsamples = 1\nvalue = 780.983"] ;
861 -> 863 ;
864 [label="mse = -0.0\nsamples = 1\nvalue = 862.877"] ;
860 -> 864 ;
865 [label="mse = -0.0\nsamples = 1\nvalue = 377.509"] ;
859 -> 865 ;
866 [label="mse = 0.0\nsamples = 1\nvalue = 1240.385"] ;
858 -> 866 ;
867 [label="X[98] <= 0.5\nmse = 18694.786\nsamples = 15\nvalue = 684.182"] ;
857 -> 867 ;
868 [label="X[1568] <= 0.5\nmse = 5788.32\nsamples = 13\nvalue = 661.173"] ;
867 -> 868 ;
869 [label="X[2] <= 58.958\nmse = 4759.113\nsamples = 12\nvalue = 669.339"] ;
868 -> 869 ;
870 [label="X[349] <= 0.5\nmse = 4546.986\nsamples = 10\nvalue = 656.77"] ;
869 -> 870 ;
871 [label="X[2] <= 58.323\nmse = 3619.753\nsamples = 9\nvalue = 648.001"] ;
870 -> 871 ;
872 [label="X[3] <= 1999.5\nmse = 3492.136\nsamples = 8\nvalue = 657.554"] ;
871 -> 872 ;
873 [label="mse = 0.0\nsamples = 1\nvalue = 798.96"] ;
872 -> 873 ;
874 [label="X[2] <= 50.901\nmse = 1977.992\nsamples = 7\nvalue = 645.771"] ;
872 -> 874 ;
875 [label="X[0] <= 9.82\nmse = 0.997\nsamples = 2\nvalue = 598.221"] ;
874 -> 875 ;
876 [label="mse = 0.0\nsamples = 1\nvalue = 599.22"] ;
875 -> 876 ;
877 [label="mse = 0.0\nsamples = 1\nvalue = 597.223"] ;
875 -> 877 ;
878 [label="X[2] <= 51.617\nmse = 1270.794\nsamples = 5\nvalue = 669.545"] ;
874 -> 878 ;
879 [label="mse = 0.0\nsamples = 1\nvalue = 717.732"] ;
878 -> 879 ;
880 [label="X[1582] <= 0.5\nmse = 662.386\nsamples = 4\nvalue = 653.483"] ;
878 -> 880 ;
881 [label="X[1599] <= 0.5\nmse = 204.374\nsamples = 3\nvalue = 643.562"] ;
880 -> 881 ;
882 [label="X[2] <= 56.693\nmse = 4.073\nsamples = 2\nvalue = 650.653"] ;
881 -> 882 ;
883 [label="mse = 0.0\nsamples = 1\nvalue = 647.158"] ;
882 -> 883 ;
884 [label="mse = 0.0\nsamples = 1\nvalue = 651.818"] ;
882 -> 884 ;
885 [label="mse = 0.0\nsamples = 1\nvalue = 615.199"] ;
881 -> 885 ;
886 [label="mse = -0.0\nsamples = 1\nvalue = 703.085"] ;
880 -> 886 ;
887 [label="mse = -0.0\nsamples = 1\nvalue = 585.904"] ;
871 -> 887 ;
888 [label="mse = 0.0\nsamples = 1\nvalue = 788.307"] ;
870 -> 888 ;
889 [label="X[87] <= 0.5\nmse = 554.112\nsamples = 2\nvalue = 736.375"] ;
869 -> 889 ;
890 [label="mse = 0.0\nsamples = 1\nvalue = 753.02"] ;
889 -> 890 ;
891 [label="mse = -0.0\nsamples = 1\nvalue = 703.085"] ;
889 -> 891 ;
892 [label="mse = 0.0\nsamples = 1\nvalue = 506.008"] ;
868 -> 892 ;
893 [label="X[1598] <= 0.5\nmse = 77678.53\nsamples = 2\nvalue = 837.576"] ;
867 -> 893 ;
894 [label="mse = 0.0\nsamples = 1\nvalue = 443.423"] ;
893 -> 894 ;
895 [label="mse = 0.0\nsamples = 1\nvalue = 1034.653"] ;
893 -> 895 ;
896 [label="X[0] <= 11.023\nmse = 9417.883\nsamples = 4\nvalue = 897.898"] ;
856 -> 896 ;
897 [label="X[1598] <= 0.5\nmse = 2306.741\nsamples = 3\nvalue = 854.388"] ;
896 -> 897 ;
898 [label="X[1593] <= 0.5\nmse = 838.815\nsamples = 2\nvalue = 897.831"] ;
897 -> 898 ;
899 [label="mse = 0.0\nsamples = 1\nvalue = 926.794"] ;
898 -> 899 ;
900 [label="mse = -0.0\nsamples = 1\nvalue = 868.869"] ;
898 -> 900 ;
901 [label="mse = 0.0\nsamples = 1\nvalue = 810.944"] ;
897 -> 901 ;
902 [label="mse = -0.0\nsamples = 1\nvalue = 1071.938"] ;
896 -> 902 ;
903 [label="X[1564] <= 0.5\nmse = 745.17\nsamples = 2\nvalue = 1010.019"] ;
855 -> 903 ;
904 [label="mse = 0.0\nsamples = 1\nvalue = 982.721"] ;
903 -> 904 ;
905 [label="mse = 0.0\nsamples = 1\nvalue = 1037.316"] ;
903 -> 905 ;
906 [label="X[1595] <= 0.5\nmse = 18629.247\nsamples = 2\nvalue = 1064.614"] ;
854 -> 906 ;
907 [label="mse = 0.0\nsamples = 1\nvalue = 928.125"] ;
906 -> 907 ;
908 [label="mse = 0.0\nsamples = 1\nvalue = 1201.103"] ;
906 -> 908 ;
909 [label="X[0] <= 9.05\nmse = 1942.247\nsamples = 4\nvalue = 1101.633"] ;
843 -> 909 ;
910 [label="mse = 0.0\nsamples = 2\nvalue = 1151.168"] ;
909 -> 910 ;
911 [label="X[2] <= 60.572\nmse = 510.67\nsamples = 2\nvalue = 1068.609"] ;
909 -> 911 ;
912 [label="mse = 0.0\nsamples = 1\nvalue = 1100.567"] ;
911 -> 912 ;
913 [label="mse = -0.0\nsamples = 1\nvalue = 1052.63"] ;
911 -> 913 ;
914 [label="X[1591] <= 0.5\nmse = 79792.135\nsamples = 2\nvalue = 1178.466"] ;
842 -> 914 ;
915 [label="mse = 0.0\nsamples = 1\nvalue = 1378.206"] ;
914 -> 915 ;
916 [label="mse = 0.0\nsamples = 1\nvalue = 778.986"] ;
914 -> 916 ;
917 [label="mse = -0.0\nsamples = 1\nvalue = 1436.796"] ;
841 -> 917 ;
918 [label="mse = -0.0\nsamples = 1\nvalue = 1545.988"] ;
840 -> 918 ;
919 [label="mse = 0.0\nsamples = 1\nvalue = 1597.92"] ;
839 -> 919 ;
920 [label="X[2] <= 60.521\nmse = 93882.477\nsamples = 24\nvalue = 648.148"] ;
666 -> 920 ;
921 [label="X[1] <= 0.058\nmse = 70930.655\nsamples = 22\nvalue = 614.141"] ;
920 -> 921 ;
922 [label="X[2] <= 51.034\nmse = 67157.103\nsamples = 12\nvalue = 745.121"] ;
921 -> 922 ;
923 [label="X[1] <= 0.052\nmse = 26192.962\nsamples = 6\nvalue = 603.881"] ;
922 -> 923 ;
924 [label="X[1571] <= 0.5\nmse = 9100.531\nsamples = 5\nvalue = 545.895"] ;
923 -> 924 ;
925 [label="X[1572] <= 0.5\nmse = 1142.746\nsamples = 4\nvalue = 588.493"] ;
924 -> 925 ;
926 [label="X[1090] <= 0.5\nmse = 325.368\nsamples = 3\nvalue = 578.164"] ;
925 -> 926 ;
927 [label="X[1565] <= 0.5\nmse = 62.531\nsamples = 2\nvalue = 584.382"] ;
926 -> 927 ;
928 [label="mse = 0.0\nsamples = 1\nvalue = 575.251"] ;
927 -> 928 ;
929 [label="mse = 0.0\nsamples = 1\nvalue = 591.23"] ;
927 -> 929 ;
930 [label="mse = -0.0\nsamples = 1\nvalue = 534.637"] ;
926 -> 930 ;
931 [label="mse = 0.0\nsamples = 1\nvalue = 671.126"] ;
925 -> 931 ;
932 [label="mse = 0.0\nsamples = 1\nvalue = 354.206"] ;
924 -> 932 ;
933 [label="mse = -0.0\nsamples = 1\nvalue = 922.799"] ;
923 -> 933 ;
934 [label="X[2] <= 55.378\nmse = 55890.855\nsamples = 6\nvalue = 949.135"] ;
922 -> 934 ;
935 [label="X[635] <= 0.5\nmse = 5165.9\nsamples = 2\nvalue = 1229.955"] ;
934 -> 935 ;
936 [label="mse = 0.0\nsamples = 1\nvalue = 1179.132"] ;
935 -> 936 ;
937 [label="mse = -0.0\nsamples = 1\nvalue = 1331.6"] ;
935 -> 937 ;
938 [label="X[1575] <= 0.5\nmse = 22108.578\nsamples = 4\nvalue = 808.725"] ;
934 -> 938 ;
939 [label="X[1582] <= 0.5\nmse = 1332.529\nsamples = 3\nvalue = 873.53"] ;
938 -> 939 ;
940 [label="X[182] <= 0.5\nmse = 9.851\nsamples = 2\nvalue = 903.269"] ;
939 -> 940 ;
941 [label="mse = 0.0\nsamples = 1\nvalue = 898.83"] ;
940 -> 941 ;
942 [label="mse = 0.0\nsamples = 1\nvalue = 905.488"] ;
940 -> 942 ;
943 [label="mse = 0.0\nsamples = 1\nvalue = 828.921"] ;
939 -> 943 ;
944 [label="mse = -0.0\nsamples = 1\nvalue = 484.702"] ;
938 -> 944 ;
945 [label="X[1568] <= 0.5\nmse = 24880.869\nsamples = 10\nvalue = 444.637"] ;
921 -> 945 ;
946 [label="X[0] <= 15.175\nmse = 14279.7\nsamples = 8\nvalue = 392.965"] ;
945 -> 946 ;
947 [label="X[1] <= 0.065\nmse = 10004.197\nsamples = 5\nvalue = 432.165"] ;
946 -> 947 ;
948 [label="mse = 0.0\nsamples = 1\nvalue = 171.776"] ;
947 -> 948 ;
949 [label="X[1564] <= 0.5\nmse = 3546.388\nsamples = 4\nvalue = 458.204"] ;
947 -> 949 ;
950 [label="X[771] <= 0.5\nmse = 1188.957\nsamples = 2\nvalue = 428.014"] ;
949 -> 950 ;
951 [label="mse = 0.0\nsamples = 1\nvalue = 343.553"] ;
950 -> 951 ;
952 [label="mse = -0.0\nsamples = 1\nvalue = 442.091"] ;
950 -> 952 ;
953 [label="X[1575] <= 0.5\nmse = 1958.454\nsamples = 2\nvalue = 528.645"] ;
949 -> 953 ;
954 [label="mse = 0.0\nsamples = 1\nvalue = 591.23"] ;
953 -> 954 ;
955 [label="mse = -0.0\nsamples = 1\nvalue = 497.353"] ;
953 -> 955 ;
956 [label="X[0] <= 18.925\nmse = 3662.853\nsamples = 3\nvalue = 249.231"] ;
946 -> 956 ;
957 [label="X[1287] <= 0.5\nmse = 18.729\nsamples = 2\nvalue = 291.953"] ;
956 -> 957 ;
958 [label="mse = 0.0\nsamples = 1\nvalue = 287.626"] ;
957 -> 958 ;
959 [label="mse = -0.0\nsamples = 1\nvalue = 296.281"] ;
957 -> 959 ;
960 [label="mse = 0.0\nsamples = 1\nvalue = 163.787"] ;
956 -> 960 ;
961 [label="X[0] <= 17.6\nmse = 3745.797\nsamples = 2\nvalue = 685.774"] ;
945 -> 961 ;
962 [label="mse = 0.0\nsamples = 1\nvalue = 599.22"] ;
961 -> 962 ;
963 [label="mse = 0.0\nsamples = 1\nvalue = 729.051"] ;
961 -> 963 ;
964 [label="X[2] <= 61.371\nmse = 79129.971\nsamples = 2\nvalue = 1311.293"] ;
920 -> 964 ;
965 [label="mse = 0.0\nsamples = 1\nvalue = 1592.594"] ;
964 -> 965 ;
966 [label="mse = 0.0\nsamples = 1\nvalue = 1029.993"] ;
964 -> 966 ;
967 [label="X[1573] <= 0.5\nmse = 8885.759\nsamples = 2\nvalue = 379.905"] ;
665 -> 967 ;
968 [label="mse = 0.0\nsamples = 1\nvalue = 495.355"] ;
967 -> 968 ;
969 [label="mse = 0.0\nsamples = 1\nvalue = 302.939"] ;
967 -> 969 ;
970 [label="X[1] <= 0.058\nmse = 45024.042\nsamples = 2\nvalue = 306.268"] ;
664 -> 970 ;
971 [label="mse = 0.0\nsamples = 1\nvalue = 673.79"] ;
970 -> 971 ;
972 [label="mse = 0.0\nsamples = 1\nvalue = 183.761"] ;
970 -> 972 ;
973 [label="X[1595] <= 0.5\nmse = 8580.953\nsamples = 2\nvalue = 349.811"] ;
663 -> 973 ;
974 [label="mse = 0.0\nsamples = 1\nvalue = 236.359"] ;
973 -> 974 ;
975 [label="mse = -0.0\nsamples = 1\nvalue = 425.446"] ;
973 -> 975 ;
976 [label="X[2] <= 57.443\nmse = 189413.825\nsamples = 21\nvalue = 956.203"] ;
662 -> 976 ;
977 [label="X[1571] <= 0.5\nmse = 103423.923\nsamples = 13\nvalue = 764.978"] ;
976 -> 977 ;
978 [label="X[0] <= 19.8\nmse = 62036.843\nsamples = 11\nvalue = 666.878"] ;
977 -> 978 ;
979 [label="X[0] <= 12.35\nmse = 32661.748\nsamples = 10\nvalue = 608.401"] ;
978 -> 979 ;
980 [label="X[423] <= 0.5\nmse = 12471.818\nsamples = 5\nvalue = 792.873"] ;
979 -> 980 ;
981 [label="X[2] <= 56.61\nmse = 4103.298\nsamples = 4\nvalue = 754.24"] ;
980 -> 981 ;
982 [label="X[1498] <= 0.5\nmse = 120.686\nsamples = 2\nvalue = 839.907"] ;
981 -> 982 ;
983 [label="mse = 0.0\nsamples = 1\nvalue = 828.921"] ;
982 -> 983 ;
984 [label="mse = -0.0\nsamples = 1\nvalue = 850.892"] ;
982 -> 984 ;
985 [label="X[1573] <= 0.5\nmse = 590.573\nsamples = 2\nvalue = 711.407"] ;
981 -> 985 ;
986 [label="mse = 0.0\nsamples = 1\nvalue = 735.709"] ;
985 -> 986 ;
987 [label="mse = -0.0\nsamples = 1\nvalue = 687.106"] ;
985 -> 987 ;
988 [label="mse = 0.0\nsamples = 1\nvalue = 1024.666"] ;
980 -> 988 ;
989 [label="X[1] <= 0.069\nmse = 13008.913\nsamples = 5\nvalue = 500.793"] ;
979 -> 989 ;
990 [label="X[1565] <= 0.5\nmse = 4454.618\nsamples = 3\nvalue = 402.143"] ;
989 -> 990 ;
991 [label="X[1573] <= 0.5\nmse = 43.442\nsamples = 2\nvalue = 468.723"] ;
990 -> 991 ;
992 [label="mse = 0.0\nsamples = 1\nvalue = 473.384"] ;
991 -> 992 ;
993 [label="mse = 0.0\nsamples = 1\nvalue = 459.402"] ;
991 -> 993 ;
994 [label="mse = 0.0\nsamples = 1\nvalue = 335.563"] ;
990 -> 994 ;
995 [label="X[1574] <= 0.5\nmse = 2099.814\nsamples = 2\nvalue = 599.442"] ;
989 -> 995 ;
996 [label="mse = 0.0\nsamples = 1\nvalue = 534.637"] ;
995 -> 996 ;
997 [label="mse = 0.0\nsamples = 1\nvalue = 631.844"] ;
995 -> 997 ;
998 [label="mse = -0.0\nsamples = 1\nvalue = 1222.409"] ;
978 -> 998 ;
999 [label="X[2] <= 52.265\nmse = 4933.925\nsamples = 2\nvalue = 1280.0"] ;
977 -> 999 ;
1000 [label="mse = 0.0\nsamples = 1\nvalue = 1350.242"] ;
999 -> 1000 ;
1001 [label="mse = -0.0\nsamples = 1\nvalue = 1209.759"] ;
999 -> 1001 ;
1002 [label="X[673] <= 0.5\nmse = 84426.09\nsamples = 8\nvalue = 1434.266"] ;
976 -> 1002 ;
1003 [label="X[1564] <= 0.5\nmse = 44394.746\nsamples = 7\nvalue = 1504.56"] ;
1002 -> 1003 ;
1004 [label="X[0] <= 12.65\nmse = 14945.815\nsamples = 4\nvalue = 1697.291"] ;
1003 -> 1004 ;
1005 [label="X[1581] <= 0.5\nmse = 1440.248\nsamples = 2\nvalue = 1815.637"] ;
1004 -> 1005 ;
1006 [label="mse = 0.0\nsamples = 1\nvalue = 1853.587"] ;
1005 -> 1006 ;
1007 [label="mse = 0.0\nsamples = 1\nvalue = 1777.686"] ;
1005 -> 1007 ;
1008 [label="X[799] <= 0.5\nmse = 439.854\nsamples = 2\nvalue = 1578.945"] ;
1004 -> 1008 ;
1009 [label="mse = 0.0\nsamples = 1\nvalue = 1557.972"] ;
1008 -> 1009 ;
1010 [label="mse = 0.0\nsamples = 1\nvalue = 1599.917"] ;
1008 -> 1010 ;
1011 [label="X[0] <= 16.325\nmse = 14464.967\nsamples = 3\nvalue = 1350.376"] ;
1003 -> 1011 ;
1012 [label="X[1572] <= 0.5\nmse = 2330.041\nsamples = 2\nvalue = 1406.502"] ;
1011 -> 1012 ;
1013 [label="mse = 0.0\nsamples = 1\nvalue = 1454.773"] ;
1012 -> 1013 ;
1014 [label="mse = -0.0\nsamples = 1\nvalue = 1358.232"] ;
1012 -> 1014 ;
1015 [label="mse = -0.0\nsamples = 1\nvalue = 1125.868"] ;
1011 -> 1015 ;
1016 [label="mse = -0.0\nsamples = 1\nvalue = 801.623"] ;
1002 -> 1016 ;
1017 [label="X[231] <= 0.5\nmse = 245157.702\nsamples = 115\nvalue = 1123.011"] ;
159 -> 1017 ;
1018 [label="X[1316] <= 0.5\nmse = 198327.682\nsamples = 113\nvalue = 1086.312"] ;
1017 -> 1018 ;
1019 [label="X[0] <= 19.6\nmse = 178615.383\nsamples = 111\nvalue = 1070.078"] ;
1018 -> 1019 ;
1020 [label="X[2] <= 73.154\nmse = 160203.947\nsamples = 101\nvalue = 1101.114"] ;
1019 -> 1020 ;
1021 [label="X[0] <= 7.07\nmse = 104015.377\nsamples = 41\nvalue = 981.225"] ;
1020 -> 1021 ;
1022 [label="X[2] <= 63.419\nmse = 74800.083\nsamples = 10\nvalue = 805.396"] ;
1021 -> 1022 ;
1023 [label="mse = 0.0\nsamples = 2\nvalue = 1225.072"] ;
1022 -> 1023 ;
1024 [label="X[1] <= 0.039\nmse = 38460.139\nsamples = 8\nvalue = 700.477"] ;
1022 -> 1024 ;
1025 [label="X[1586] <= 0.5\nmse = 22108.726\nsamples = 6\nvalue = 785.866"] ;
1024 -> 1025 ;
1026 [label="X[2] <= 66.664\nmse = 9121.238\nsamples = 5\nvalue = 744.031"] ;
1025 -> 1026 ;
1027 [label="X[1179] <= 0.5\nmse = 2054.204\nsamples = 4\nvalue = 794.299"] ;
1026 -> 1027 ;
1028 [label="X[3] <= 2003.0\nmse = 143.626\nsamples = 2\nvalue = 763.007"] ;
1027 -> 1028 ;
1029 [label="mse = 0.0\nsamples = 1\nvalue = 774.991"] ;
1028 -> 1029 ;
1030 [label="mse = 0.0\nsamples = 1\nvalue = 751.022"] ;
1028 -> 1030 ;
1031 [label="mse = -0.0\nsamples = 2\nvalue = 856.885"] ;
1027 -> 1031 ;
1032 [label="mse = 0.0\nsamples = 1\nvalue = 593.228"] ;
1026 -> 1032 ;
1033 [label="mse = -0.0\nsamples = 1\nvalue = 1120.541"] ;
1025 -> 1033 ;
1034 [label="X[232] <= 0.5\nmse = 19.308\nsamples = 2\nvalue = 444.311"] ;
1024 -> 1034 ;
1035 [label="mse = 0.0\nsamples = 1\nvalue = 447.418"] ;
1034 -> 1035 ;
1036 [label="mse = 0.0\nsamples = 1\nvalue = 438.096"] ;
1034 -> 1036 ;
1037 [label="X[1] <= 0.112\nmse = 100722.756\nsamples = 31\nvalue = 1033.974"] ;
1021 -> 1037 ;
1038 [label="X[1] <= 0.105\nmse = 104937.251\nsamples = 27\nvalue = 1079.69"] ;
1037 -> 1038 ;
1039 [label="X[415] <= 0.5\nmse = 67089.927\nsamples = 25\nvalue = 1031.922"] ;
1038 -> 1039 ;
1040 [label="X[2] <= 65.467\nmse = 55278.554\nsamples = 24\nvalue = 1050.58"] ;
1039 -> 1040 ;
1041 [label="X[1585] <= 0.5\nmse = 58854.694\nsamples = 13\nvalue = 1142.898"] ;
1040 -> 1041 ;
1042 [label="X[1574] <= 0.5\nmse = 30369.454\nsamples = 12\nvalue = 1081.847"] ;
1041 -> 1042 ;
1043 [label="X[1593] <= 0.5\nmse = 23305.263\nsamples = 9\nvalue = 1022.874"] ;
1042 -> 1043 ;
1044 [label="X[0] <= 15.475\nmse = 16038.761\nsamples = 8\nvalue = 996.259"] ;
1043 -> 1044 ;
1045 [label="X[0] <= 10.213\nmse = 8348.456\nsamples = 6\nvalue = 1038.115"] ;
1044 -> 1045 ;
1046 [label="X[510] <= 0.5\nmse = 127.667\nsamples = 2\nvalue = 1154.497"] ;
1045 -> 1046 ;
1047 [label="mse = 0.0\nsamples = 1\nvalue = 1162.487"] ;
1046 -> 1047 ;
1048 [label="mse = 0.0\nsamples = 1\nvalue = 1138.518"] ;
1046 -> 1048 ;
1049 [label="X[2] <= 63.084\nmse = 3578.958\nsamples = 4\nvalue = 988.237"] ;
1045 -> 1049 ;
1050 [label="X[1] <= 0.049\nmse = 1876.002\nsamples = 2\nvalue = 928.125"] ;
1049 -> 1050 ;
1051 [label="mse = 0.0\nsamples = 1\nvalue = 866.872"] ;
1050 -> 1051 ;
1052 [label="mse = -0.0\nsamples = 1\nvalue = 958.752"] ;
1050 -> 1052 ;
1053 [label="X[1597] <= 0.5\nmse = 113.482\nsamples = 2\nvalue = 1033.322"] ;
1049 -> 1053 ;
1054 [label="mse = 0.0\nsamples = 1\nvalue = 1043.974"] ;
1053 -> 1054 ;
1055 [label="mse = 0.0\nsamples = 1\nvalue = 1022.669"] ;
1053 -> 1055 ;
1056 [label="X[1] <= 0.077\nmse = 1930.97\nsamples = 2\nvalue = 786.976"] ;
1044 -> 1056 ;
1057 [label="mse = 0.0\nsamples = 1\nvalue = 830.918"] ;
1056 -> 1057 ;
1058 [label="mse = 0.0\nsamples = 1\nvalue = 743.033"] ;
1056 -> 1058 ;
1059 [label="mse = -0.0\nsamples = 1\nvalue = 1342.253"] ;
1043 -> 1059 ;
1060 [label="X[1591] <= 0.5\nmse = 5290.745\nsamples = 3\nvalue = 1273.509"] ;
1042 -> 1060 ;
1061 [label="X[1601] <= 0.5\nmse = 288.249\nsamples = 2\nvalue = 1345.249"] ;
1060 -> 1061 ;
1062 [label="mse = 0.0\nsamples = 1\nvalue = 1362.227"] ;
1061 -> 1062 ;
1063 [label="mse = -0.0\nsamples = 1\nvalue = 1328.271"] ;
1061 -> 1063 ;
1064 [label="mse = 0.0\nsamples = 1\nvalue = 1201.769"] ;
1060 -> 1064 ;
1065 [label="mse = -0.0\nsamples = 1\nvalue = 1661.837"] ;
1041 -> 1065 ;
1066 [label="X[1585] <= 0.5\nmse = 34657.03\nsamples = 11\nvalue = 958.261"] ;
1040 -> 1066 ;
1067 [label="X[22] <= 0.5\nmse = 17744.895\nsamples = 10\nvalue = 989.749"] ;
1066 -> 1067 ;
1068 [label="X[0] <= 16.725\nmse = 8087.858\nsamples = 9\nvalue = 1014.131"] ;
1067 -> 1068 ;
1069 [label="X[1586] <= 0.5\nmse = 2954.815\nsamples = 6\nvalue = 1070.122"] ;
1068 -> 1069 ;
1070 [label="X[1568] <= 0.5\nmse = 654.011\nsamples = 5\nvalue = 1046.934"] ;
1069 -> 1070 ;
1071 [label="X[1] <= 0.055\nmse = 360.81\nsamples = 4\nvalue = 1040.479"] ;
1070 -> 1071 ;
1072 [label="X[1] <= 0.033\nmse = 34.47\nsamples = 2\nvalue = 1029.859"] ;
1071 -> 1072 ;
1073 [label="mse = 0.0\nsamples = 1\nvalue = 1034.653"] ;
1072 -> 1073 ;
1074 [label="mse = 0.0\nsamples = 1\nvalue = 1022.669"] ;
1072 -> 1074 ;
1075 [label="X[1581] <= 0.5\nmse = 403.492\nsamples = 2\nvalue = 1058.178"] ;
1071 -> 1075 ;
1076 [label="mse = 0.0\nsamples = 1\nvalue = 1086.586"] ;
1075 -> 1076 ;
1077 [label="mse = 0.0\nsamples = 1\nvalue = 1043.974"] ;
1075 -> 1077 ;
1078 [label="mse = -0.0\nsamples = 1\nvalue = 1098.57"] ;
1070 -> 1078 ;
1079 [label="mse = 0.0\nsamples = 1\nvalue = 1174.471"] ;
1069 -> 1079 ;
1080 [label="X[1578] <= 0.5\nmse = 1213.727\nsamples = 3\nvalue = 911.48"] ;
1068 -> 1080 ;
1081 [label="X[2] <= 72.654\nmse = 0.0\nsamples = 2\nvalue = 886.846"] ;
1080 -> 1081 ;
1082 [label="mse = 0.0\nsamples = 1\nvalue = 886.846"] ;
1081 -> 1082 ;
1083 [label="mse = -0.0\nsamples = 1\nvalue = 886.846"] ;
1081 -> 1083 ;
1084 [label="mse = 0.0\nsamples = 1\nvalue = 960.749"] ;
1080 -> 1084 ;
1085 [label="mse = 0.0\nsamples = 1\nvalue = 575.251"] ;
1067 -> 1085 ;
1086 [label="mse = 0.0\nsamples = 1\nvalue = 391.49"] ;
1066 -> 1086 ;
1087 [label="mse = 0.0\nsamples = 1\nvalue = 322.913"] ;
1039 -> 1087 ;
1088 [label="X[1594] <= 0.5\nmse = 181666.399\nsamples = 2\nvalue = 1700.675"] ;
1038 -> 1088 ;
1089 [label="mse = 0.0\nsamples = 1\nvalue = 1097.904"] ;
1088 -> 1089 ;
1090 [label="mse = -0.0\nsamples = 1\nvalue = 2002.061"] ;
1088 -> 1090 ;
1091 [label="X[1594] <= 0.5\nmse = 10020.895\nsamples = 4\nvalue = 793.966"] ;
1037 -> 1091 ;
1092 [label="X[900] <= 0.5\nmse = 1292.633\nsamples = 3\nvalue = 739.038"] ;
1091 -> 1092 ;
1093 [label="mse = 0.0\nsamples = 2\nvalue = 703.085"] ;
1092 -> 1093 ;
1094 [label="mse = 0.0\nsamples = 1\nvalue = 774.991"] ;
1092 -> 1094 ;
1095 [label="mse = 0.0\nsamples = 1\nvalue = 958.752"] ;
1091 -> 1095 ;
1096 [label="X[2] <= 78.497\nmse = 182738.771\nsamples = 60\nvalue = 1186.748"] ;
1020 -> 1096 ;
1097 [label="X[1565] <= 0.5\nmse = 146822.751\nsamples = 41\nvalue = 1265.332"] ;
1096 -> 1097 ;
1098 [label="X[1586] <= 0.5\nmse = 117766.608\nsamples = 27\nvalue = 1144.569"] ;
1097 -> 1098 ;
1099 [label="X[1] <= 0.077\nmse = 86933.693\nsamples = 22\nvalue = 1046.295"] ;
1098 -> 1099 ;
1100 [label="X[34] <= 0.5\nmse = 62159.157\nsamples = 17\nvalue = 973.637"] ;
1099 -> 1100 ;
1101 [label="X[1597] <= 0.5\nmse = 48904.21\nsamples = 16\nvalue = 926.527"] ;
1100 -> 1101 ;
1102 [label="X[1] <= 0.032\nmse = 13333.512\nsamples = 8\nvalue = 803.313"] ;
1101 -> 1102 ;
1103 [label="X[0] <= 15.825\nmse = 6136.122\nsamples = 4\nvalue = 676.852"] ;
1102 -> 1103 ;
1104 [label="X[1599] <= 0.5\nmse = 838.815\nsamples = 2\nvalue = 583.574"] ;
1103 -> 1104 ;
1105 [label="mse = 0.0\nsamples = 1\nvalue = 612.536"] ;
1104 -> 1105 ;
1106 [label="mse = 0.0\nsamples = 1\nvalue = 554.611"] ;
1104 -> 1106 ;
1107 [label="mse = 0.0\nsamples = 2\nvalue = 739.038"] ;
1103 -> 1107 ;
1108 [label="X[1] <= 0.053\nmse = 1589.609\nsamples = 4\nvalue = 882.351"] ;
1102 -> 1108 ;
1109 [label="X[1599] <= 0.5\nmse = 383.002\nsamples = 3\nvalue = 910.814"] ;
1108 -> 1109 ;
1110 [label="mse = -0.0\nsamples = 2\nvalue = 894.835"] ;
1109 -> 1110 ;
1111 [label="mse = 0.0\nsamples = 1\nvalue = 934.783"] ;
1109 -> 1111 ;
1112 [label="mse = -0.0\nsamples = 1\nvalue = 834.913"] ;
1108 -> 1112 ;
1113 [label="X[2] <= 74.087\nmse = 53174.917\nsamples = 8\nvalue = 1060.009"] ;
1101 -> 1113 ;
1114 [label="X[1568] <= 0.5\nmse = 2157.737\nsamples = 2\nvalue = 1383.976"] ;
1113 -> 1114 ;
1115 [label="mse = 0.0\nsamples = 1\nvalue = 1416.822"] ;
1114 -> 1115 ;
1116 [label="mse = 0.0\nsamples = 1\nvalue = 1318.284"] ;
1114 -> 1116 ;
1117 [label="X[208] <= 0.5\nmse = 23534.094\nsamples = 6\nvalue = 952.02"] ;
1113 -> 1117 ;
1118 [label="X[1582] <= 0.5\nmse = 6988.794\nsamples = 5\nvalue = 905.488"] ;
1117 -> 1118 ;
1119 [label="X[1572] <= 0.5\nmse = 629.915\nsamples = 4\nvalue = 952.094"] ;
1118 -> 1119 ;
1120 [label="X[1595] <= 0.5\nmse = 173.309\nsamples = 3\nvalue = 961.948"] ;
1119 -> 1120 ;
1121 [label="X[1054] <= 0.5\nmse = 24.935\nsamples = 2\nvalue = 955.756"] ;
1120 -> 1121 ;
1122 [label="mse = 0.0\nsamples = 1\nvalue = 950.762"] ;
1121 -> 1122 ;
1123 [label="mse = -0.0\nsamples = 1\nvalue = 960.749"] ;
1121 -> 1123 ;
1124 [label="mse = 0.0\nsamples = 1\nvalue = 986.716"] ;
1120 -> 1124 ;
1125 [label="mse = -0.0\nsamples = 1\nvalue = 902.825"] ;
1119 -> 1125 ;
1126 [label="mse = -0.0\nsamples = 1\nvalue = 765.67"] ;
1118 -> 1126 ;
1127 [label="mse = -0.0\nsamples = 1\nvalue = 1324.276"] ;
1117 -> 1127 ;
1128 [label="mse = 0.0\nsamples = 1\nvalue = 1366.222"] ;
1100 -> 1128 ;
1129 [label="X[267] <= 0.5\nmse = 80448.71\nsamples = 5\nvalue = 1336.926"] ;
1099 -> 1129 ;
1130 [label="X[911] <= 0.5\nmse = 45113.094\nsamples = 4\nvalue = 1253.479"] ;
1129 -> 1130 ;
1131 [label="mse = -0.0\nsamples = 3\nvalue = 1158.492"] ;
1130 -> 1131 ;
1132 [label="mse = 0.0\nsamples = 1\nvalue = 1728.417"] ;
1130 -> 1132 ;
1133 [label="mse = -0.0\nsamples = 1\nvalue = 1837.608"] ;
1129 -> 1133 ;
1134 [label="X[0] <= 11.95\nmse = 73571.19\nsamples = 5\nvalue = 1488.529"] ;
1098 -> 1134 ;
1135 [label="mse = 0.0\nsamples = 1\nvalue = 2277.036"] ;
1134 -> 1135 ;
1136 [label="X[1] <= 0.109\nmse = 4987.348\nsamples = 4\nvalue = 1400.917"] ;
1134 -> 1136 ;
1137 [label="X[1572] <= 0.5\nmse = 88.904\nsamples = 3\nvalue = 1450.556"] ;
1136 -> 1137 ;
1138 [label="X[500] <= 0.5\nmse = 35.562\nsamples = 2\nvalue = 1458.99"] ;
1137 -> 1138 ;
1139 [label="mse = 0.0\nsamples = 1\nvalue = 1454.773"] ;
1138 -> 1139 ;
1140 [label="mse = 0.0\nsamples = 1\nvalue = 1467.423"] ;
1138 -> 1140 ;
1141 [label="mse = 0.0\nsamples = 1\nvalue = 1442.123"] ;
1137 -> 1141 ;
1142 [label="mse = 0.0\nsamples = 1\nvalue = 1301.639"] ;
1136 -> 1142 ;
1143 [label="X[2] <= 76.467\nmse = 99294.055\nsamples = 14\nvalue = 1551.349"] ;
1097 -> 1143 ;
1144 [label="X[1] <= 0.065\nmse = 34219.216\nsamples = 7\nvalue = 1362.427"] ;
1143 -> 1144 ;
1145 [label="X[1586] <= 0.5\nmse = 7894.988\nsamples = 4\nvalue = 1485.4"] ;
1144 -> 1145 ;
1146 [label="X[3] <= 2001.5\nmse = 1310.825\nsamples = 3\nvalue = 1448.514"] ;
1145 -> 1146 ;
1147 [label="mse = 0.0\nsamples = 1\nvalue = 1478.076"] ;
1146 -> 1147 ;
1148 [label="X[3] <= 2006.5\nmse = 0.0\nsamples = 2\nvalue = 1404.172"] ;
1146 -> 1148 ;
1149 [label="mse = 0.0\nsamples = 1\nvalue = 1404.172"] ;
1148 -> 1149 ;
1150 [label="mse = 0.0\nsamples = 1\nvalue = 1404.172"] ;
1148 -> 1150 ;
1151 [label="mse = 0.0\nsamples = 1\nvalue = 1669.826"] ;
1145 -> 1151 ;
1152 [label="X[3] <= 1992.0\nmse = 16996.473\nsamples = 3\nvalue = 1177.967"] ;
1144 -> 1152 ;
1153 [label="mse = 0.0\nsamples = 1\nvalue = 1402.175"] ;
1152 -> 1153 ;
1154 [label="X[1592] <= 0.5\nmse = 320.055\nsamples = 2\nvalue = 1103.231"] ;
1152 -> 1154 ;
1155 [label="mse = 0.0\nsamples = 1\nvalue = 1090.58"] ;
1154 -> 1155 ;
1156 [label="mse = 0.0\nsamples = 1\nvalue = 1128.531"] ;
1154 -> 1156 ;
1157 [label="X[3] <= 1993.0\nmse = 87878.132\nsamples = 7\nvalue = 1761.263"] ;
1143 -> 1157 ;
1158 [label="mse = 0.0\nsamples = 1\nvalue = 2278.368"] ;
1157 -> 1158 ;
1159 [label="X[1] <= 0.065\nmse = 61260.162\nsamples = 6\nvalue = 1696.625"] ;
1157 -> 1159 ;
1160 [label="X[1574] <= 0.5\nmse = 4819.871\nsamples = 3\nvalue = 1522.551"] ;
1159 -> 1160 ;
1161 [label="mse = 0.0\nsamples = 1\nvalue = 1438.128"] ;
1160 -> 1161 ;
1162 [label="X[1595] <= 0.5\nmse = 113.876\nsamples = 2\nvalue = 1578.834"] ;
1160 -> 1162 ;
1163 [label="mse = 0.0\nsamples = 1\nvalue = 1571.288"] ;
1162 -> 1163 ;
1164 [label="mse = 0.0\nsamples = 1\nvalue = 1593.925"] ;
1162 -> 1164 ;
1165 [label="X[2] <= 77.216\nmse = 20653.751\nsamples = 3\nvalue = 1986.747"] ;
1159 -> 1165 ;
1166 [label="mse = 0.0\nsamples = 1\nvalue = 1805.65"] ;
1165 -> 1166 ;
1167 [label="X[2] <= 78.096\nmse = 6383.371\nsamples = 2\nvalue = 2077.296"] ;
1165 -> 1167 ;
1168 [label="mse = 0.0\nsamples = 1\nvalue = 1997.4"] ;
1167 -> 1168 ;
1169 [label="mse = -0.0\nsamples = 1\nvalue = 2157.192"] ;
1167 -> 1169 ;
1170 [label="X[1571] <= 0.5\nmse = 218537.458\nsamples = 19\nvalue = 1000.475"] ;
1096 -> 1170 ;
1171 [label="X[2] <= 78.93\nmse = 184115.876\nsamples = 15\nvalue = 892.021"] ;
1170 -> 1171 ;
1172 [label="X[1596] <= 0.5\nmse = 167774.224\nsamples = 7\nvalue = 635.839"] ;
1171 -> 1172 ;
1173 [label="X[940] <= 0.5\nmse = 76403.823\nsamples = 6\nvalue = 472.552"] ;
1172 -> 1173 ;
1174 [label="X[2] <= 78.797\nmse = 41201.836\nsamples = 5\nvalue = 396.627"] ;
1173 -> 1174 ;
1175 [label="X[1] <= 0.013\nmse = 6878.193\nsamples = 4\nvalue = 319.917"] ;
1174 -> 1175 ;
1176 [label="mse = 0.0\nsamples = 2\nvalue = 402.809"] ;
1175 -> 1176 ;
1177 [label="X[1601] <= 0.5\nmse = 14.185\nsamples = 2\nvalue = 237.025"] ;
1175 -> 1177 ;
1178 [label="mse = 0.0\nsamples = 1\nvalue = 239.688"] ;
1177 -> 1178 ;
1179 [label="mse = -0.0\nsamples = 1\nvalue = 231.698"] ;
1177 -> 1179 ;
1180 [label="mse = 0.0\nsamples = 1\nvalue = 856.885"] ;
1174 -> 1180 ;
1181 [label="mse = 0.0\nsamples = 1\nvalue = 1004.026"] ;
1173 -> 1181 ;
1182 [label="mse = 0.0\nsamples = 1\nvalue = 1288.989"] ;
1172 -> 1182 ;
1183 [label="X[709] <= 0.5\nmse = 97467.309\nsamples = 8\nvalue = 1105.505"] ;
1171 -> 1183 ;
1184 [label="X[2] <= 79.13\nmse = 42352.494\nsamples = 6\nvalue = 959.122"] ;
1183 -> 1184 ;
1185 [label="mse = 0.0\nsamples = 1\nvalue = 1208.427"] ;
1184 -> 1185 ;
1186 [label="X[1564] <= 0.5\nmse = 16913.962\nsamples = 5\nvalue = 834.469"] ;
1184 -> 1186 ;
1187 [label="mse = 0.0\nsamples = 1\nvalue = 1118.544"] ;
1186 -> 1187 ;
1188 [label="X[3] <= 1993.0\nmse = 929.135\nsamples = 4\nvalue = 777.654"] ;
1186 -> 1188 ;
1189 [label="mse = 0.0\nsamples = 1\nvalue = 719.064"] ;
1188 -> 1189 ;
1190 [label="X[1597] <= 0.5\nmse = 88.658\nsamples = 3\nvalue = 792.302"] ;
1188 -> 1190 ;
1191 [label="X[1574] <= 0.5\nmse = 39.404\nsamples = 2\nvalue = 787.863"] ;
1190 -> 1191 ;
1192 [label="mse = 0.0\nsamples = 1\nvalue = 792.302"] ;
1191 -> 1192 ;
1193 [label="mse = -0.0\nsamples = 1\nvalue = 778.986"] ;
1191 -> 1193 ;
1194 [label="mse = 0.0\nsamples = 1\nvalue = 805.618"] ;
1190 -> 1194 ;
1195 [label="X[1595] <= 0.5\nmse = 5674.107\nsamples = 2\nvalue = 1544.656"] ;
1183 -> 1195 ;
1196 [label="mse = 0.0\nsamples = 1\nvalue = 1597.92"] ;
1195 -> 1196 ;
1197 [label="mse = 0.0\nsamples = 1\nvalue = 1438.128"] ;
1195 -> 1197 ;
1198 [label="X[1598] <= 0.5\nmse = 90516.837\nsamples = 4\nvalue = 1477.677"] ;
1170 -> 1198 ;
1199 [label="X[1599] <= 0.5\nmse = 6383.371\nsamples = 2\nvalue = 1118.544"] ;
1198 -> 1199 ;
1200 [label="mse = 0.0\nsamples = 1\nvalue = 1038.648"] ;
1199 -> 1200 ;
1201 [label="mse = 0.0\nsamples = 1\nvalue = 1198.44"] ;
1199 -> 1201 ;
1202 [label="X[2] <= 78.797\nmse = 3298.962\nsamples = 2\nvalue = 1717.098"] ;
1198 -> 1202 ;
1203 [label="mse = 0.0\nsamples = 1\nvalue = 1757.712"] ;
1202 -> 1203 ;
1204 [label="mse = -0.0\nsamples = 1\nvalue = 1635.871"] ;
1202 -> 1204 ;
1205 [label="X[1572] <= 0.5\nmse = 253439.844\nsamples = 10\nvalue = 724.248"] ;
1019 -> 1205 ;
1206 [label="X[1591] <= 0.5\nmse = 105983.607\nsamples = 9\nvalue = 615.046"] ;
1205 -> 1206 ;
1207 [label="X[1577] <= 0.5\nmse = 55046.471\nsamples = 8\nvalue = 753.22"] ;
1206 -> 1207 ;
1208 [label="X[2] <= 63.218\nmse = 24363.746\nsamples = 6\nvalue = 680.864"] ;
1207 -> 1208 ;
1209 [label="mse = 0.0\nsamples = 1\nvalue = 1086.586"] ;
1208 -> 1209 ;
1210 [label="X[1] <= 0.094\nmse = 969.14\nsamples = 5\nvalue = 622.903"] ;
1208 -> 1210 ;
1211 [label="X[1597] <= 0.5\nmse = 385.773\nsamples = 2\nvalue = 576.916"] ;
1210 -> 1211 ;
1212 [label="mse = 0.0\nsamples = 1\nvalue = 596.557"] ;
1211 -> 1212 ;
1213 [label="mse = -0.0\nsamples = 1\nvalue = 557.275"] ;
1211 -> 1213 ;
1214 [label="X[790] <= 0.5\nmse = 18.157\nsamples = 3\nvalue = 641.299"] ;
1210 -> 1214 ;
1215 [label="mse = 0.0\nsamples = 2\nvalue = 639.168"] ;
1214 -> 1215 ;
1216 [label="mse = -0.0\nsamples = 1\nvalue = 649.821"] ;
1214 -> 1216 ;
1217 [label="X[1586] <= 0.5\nmse = 73070.091\nsamples = 2\nvalue = 1042.643"] ;
1207 -> 1217 ;
1218 [label="mse = 0.0\nsamples = 1\nvalue = 772.328"] ;
1217 -> 1218 ;
1219 [label="mse = -0.0\nsamples = 1\nvalue = 1312.958"] ;
1217 -> 1219 ;
1220 [label="mse = -0.0\nsamples = 1\nvalue = 154.466"] ;
1206 -> 1220 ;
1221 [label="mse = 0.0\nsamples = 1\nvalue = 2143.876"] ;
1205 -> 1221 ;
1222 [label="X[3] <= 1995.5\nmse = 454087.092\nsamples = 2\nvalue = 2006.277"] ;
1018 -> 1222 ;
1223 [label="mse = 0.0\nsamples = 1\nvalue = 1053.296"] ;
1222 -> 1223 ;
1224 [label="mse = -0.0\nsamples = 1\nvalue = 2482.768"] ;
1222 -> 1224 ;
1225 [label="X[1591] <= 0.5\nmse = 436909.816\nsamples = 2\nvalue = 2181.161"] ;
1017 -> 1225 ;
1226 [label="mse = 0.0\nsamples = 1\nvalue = 1246.378"] ;
1225 -> 1226 ;
1227 [label="mse = 0.0\nsamples = 1\nvalue = 2648.552"] ;
1225 -> 1227 ;
1228 [label="X[2] <= 51.732\nmse = 8059.342\nsamples = 86\nvalue = 129.961"] ;
2 -> 1228 ;
1229 [label="X[455] <= 0.5\nmse = 2243.546\nsamples = 48\nvalue = 79.154"] ;
1228 -> 1229 ;
1230 [label="X[1175] <= 0.5\nmse = 1907.309\nsamples = 47\nvalue = 74.828"] ;
1229 -> 1230 ;
1231 [label="X[0] <= 15.1\nmse = 1567.283\nsamples = 46\nvalue = 72.481"] ;
1230 -> 1231 ;
1232 [label="X[559] <= 0.5\nmse = 1301.735\nsamples = 35\nvalue = 64.758"] ;
1231 -> 1232 ;
1233 [label="X[354] <= 0.5\nmse = 1058.647\nsamples = 34\nvalue = 60.495"] ;
1232 -> 1233 ;
1234 [label="X[2] <= 48.036\nmse = 790.585\nsamples = 33\nvalue = 58.088"] ;
1233 -> 1234 ;
1235 [label="X[1123] <= 0.5\nmse = 410.144\nsamples = 26\nvalue = 51.5"] ;
1234 -> 1235 ;
1236 [label="X[1] <= 0.053\nmse = 233.666\nsamples = 25\nvalue = 49.337"] ;
1235 -> 1236 ;
1237 [label="X[2] <= 38.383\nmse = 373.367\nsamples = 9\nvalue = 66.519"] ;
1236 -> 1237 ;
1238 [label="X[1576] <= 0.5\nmse = 293.209\nsamples = 4\nvalue = 49.669"] ;
1237 -> 1238 ;
1239 [label="X[1582] <= 0.5\nmse = 3.054\nsamples = 3\nvalue = 35.731"] ;
1238 -> 1239 ;
1240 [label="X[2] <= 36.402\nmse = 0.111\nsamples = 2\nvalue = 36.952"] ;
1239 -> 1240 ;
1241 [label="mse = 0.0\nsamples = 1\nvalue = 36.619"] ;
1240 -> 1241 ;
1242 [label="mse = 0.0\nsamples = 1\nvalue = 37.285"] ;
1240 -> 1242 ;
1243 [label="mse = -0.0\nsamples = 1\nvalue = 33.29"] ;
1239 -> 1243 ;
1244 [label="mse = -0.0\nsamples = 1\nvalue = 70.575"] ;
1238 -> 1244 ;
1245 [label="X[1566] <= 0.5\nmse = 6.354\nsamples = 5\nvalue = 80.562"] ;
1237 -> 1245 ;
